<?xml version="1.0"?>
<opencv_storage>
<cascade>
  <stageType>BOOST</stageType>
  <featureType>HAAR</featureType>
  <height>10</height>
  <width>10</width>
  <stageParams>
    <boostType>GAB</boostType>
    <minHitRate>9.9500000476837158e-01</minHitRate>
    <maxFalseAlarm>5.0000000000000000e-01</maxFalseAlarm>
    <weightTrimRate>9.4999999999999996e-01</weightTrimRate>
    <maxDepth>5</maxDepth>
    <maxWeakCount>100</maxWeakCount></stageParams>
  <featureParams>
    <maxCatCount>0</maxCatCount>
    <mode>ALL</mode></featureParams>
  <stageNum>20</stageNum>
  <stages>
    <!-- stage 0 -->
    <_>
      <maxWeakCount>4</maxWeakCount>
      <stageThreshold>-1.4169673919677734e+00</stageThreshold>
      <weakClassifiers>
        <_>
          <internalNodes>
            1 2 921 7.9337072372436523e-01 3 4 237
            8.3510768413543701e-01 5 6 921 1.3415033817291260e+00 7 8
            1146 8.2537823915481567e-01 9 10 3899
            -2.7043610811233521e-02 11 12 1830 -1.2548072263598442e-02
            13 14 1996 1.6061399877071381e-01 15 16 2435
            9.5102846622467041e-01 17 18 2699 2.7656454592943192e-02 0
            19 907 1.6016907989978790e-01 20 21 4033
            -1.4281405135989189e-02 22 23 2660 -1.0640437155961990e-01
            24 25 2392 -1.5148280188441277e-02 26 27 2636
            6.2161900103092194e-02 28 29 1571 -2.8066292405128479e-02 -1
            -2 902 9.6802240610122681e-01 -3 -4 2919
            1.3561786711215973e-01 -5 -6 1479 1.6667485237121582e-01 -7
            -8 496 -2.1124346181750298e-02 -9 -10 180
            2.1183518692851067e-03 -11 -12 237 1.2111594676971436e+00
            -13 -14 937 5.9708889573812485e-02 -15 -16 3028
            -7.5543001294136047e-02 -17 -18 1075 8.9180314540863037e-01
            -19 -20 2209 -4.7295935451984406e-02 -21 -22 1830
            7.6533509418368340e-03 -23 -24 439 -1.9687578082084656e-02
            -25 -26 1801 -2.5873005390167236e-02 -27 -28 1589
            -2.9151249676942825e-02 -29 -30 375 -6.6918623447418213e-01</internalNodes>
          <leafValues>
            -1. -7.0013523101806641e-01 7.3665481805801392e-01
            -5.6756758689880371e-01 8.3171522617340088e-01
            -8.3783781528472900e-01 5.2941179275512695e-01
            -2.6315790414810181e-01 8.2178217172622681e-01 1. -1. -1.
            7.5000000000000000e-01 -6.0000002384185791e-01
            8.9591079950332642e-01 1. -6.3636362552642822e-01
            -8.3333331346511841e-01 2.2222222387790680e-01
            4.1935482621192932e-01 -6.2616825103759766e-01
            7.7122879028320312e-01 9.0196080505847931e-02 1. -1. -1.
            8.4905660152435303e-01 6.6666668653488159e-01 -1.
            -7.1428573131561279e-01 9.7709101438522339e-01</leafValues></_>
        <_>
          <internalNodes>
            1 2 921 1.1623916625976562e+00 3 4 1955
            6.8375658988952637e-01 5 6 3962 -1.5072159469127655e-02 7 8
            178 -6.8322643637657166e-03 9 10 779 -2.7935061603784561e-02
            11 12 3317 6.9374427199363708e-02 13 14 3
            1.0683288797736168e-02 15 16 66 1.1816923618316650e+00 17 18
            178 4.2771808803081512e-03 0 19 444 -1.3967195153236389e-01
            20 -1 3142 9.4734534621238708e-02 -2 21 2609
            -4.0407087653875351e-02 -3 -4 6 -1.5005057677626610e-02 22
            23 433 -2.2747512906789780e-02 24 25 997
            9.6039211750030518e-01 -5 -6 397 -3.2799697946757078e-03 -7
            -8 3765 -4.4136367738246918e-02 -9 -10 475
            -8.6282975971698761e-03 -11 -12 440 9.5009994506835938e-01
            -13 -14 17 8.3623223006725311e-02 -15 -16 553
            -1.7907222732901573e-02 -17 -18 1524 7.7613389492034912e-01
            -19 -20 3662 -2.2723071277141571e-01 -21 -22 2780
            -1.5670398250222206e-02 -23 -24 2656 2.9576951637864113e-02
            -25 -26 1817 2.7768539264798164e-02</internalNodes>
          <leafValues>
            1. -9.0720427036285400e-01 1. -1. 1. -8.4917831420898438e-01
            -4.6279591321945190e-01 -7.1756476163864136e-01
            9.6915388107299805e-01 -4.5366185903549194e-01
            3.1688609719276428e-01 -4.6062758564949036e-01
            7.0216995477676392e-01 -1. 1. -1.7602162063121796e-01
            9.4519656896591187e-01 -9.0221452713012695e-01
            8.3657294511795044e-01 1. -2.6834586262702942e-01
            -8.9781485497951508e-02 9.2671906948089600e-01
            -8.4440982341766357e-01 5.5069494247436523e-01 1.
            -5.7204282283782959e-01</leafValues></_>
        <_>
          <internalNodes>
            1 2 1458 1.0337991714477539e+00 3 4 2284
            -5.9731025248765945e-03 5 6 291 -1.7034690827131271e-02 7 8
            3023 1.6161356866359711e-01 9 10 2781
            -1.0973096825182438e-02 0 11 1199 1.7821097373962402e-01 12
            13 1607 3.0871029943227768e-02 14 15 2033
            8.0719780921936035e-01 -1 16 140 -2.7792260050773621e-01 17
            18 2034 1.5091982483863831e-01 19 20 4093
            -7.8038941137492657e-03 21 -2 1651 3.5152211785316467e-02 -3
            -4 568 -2.7378455270081758e-03 22 23 761
            -3.8417514413595200e-02 -5 -6 3375 1.2089230865240097e-01 -7
            -8 2248 1.5335625968873501e-02 -9 -10 859
            -9.0584233403205872e-03 -11 -12 3022 -1.4237940311431885e-01
            -13 -14 800 -2.3136101663112640e-02 -15 -16 2159
            1.5201085805892944e-01 -17 -18 4084 -1.0794982314109802e-02
            -19 -20 3758 1.2024910002946854e-01 -21 -22 2193
            2.3729198146611452e-03 -23 -24 3976 -4.7688681632280350e-02</internalNodes>
          <leafValues>
            1. -1. 1. -9.7834140062332153e-01 1. -5.5944508314132690e-01
            4.3982896208763123e-01 1. -7.9071557521820068e-01
            -8.6068177223205566e-01 9.3003612756729126e-01
            1.6763666272163391e-01 -6.4455986022949219e-01
            -9.4648683071136475e-01 8.8116502761840820e-01
            -3.8728007674217224e-01 6.9815039634704590e-01
            -2.9585376381874084e-01 4.2182970046997070e-01
            -9.9022477865219116e-01 1. 1. -7.9111605882644653e-01
            -6.6164642572402954e-01 9.5495003461837769e-01</leafValues></_>
        <_>
          <internalNodes>
            1 2 3184 -1.2362491339445114e-02 3 4 2512
            -1.0325343906879425e-01 5 6 3184 7.5494451448321342e-03 0 7
            878 -3.4823007881641388e-02 8 9 3484 1.2859541177749634e-01
            10 11 1830 -1.2971438467502594e-02 12 13 2498
            -5.7770997285842896e-02 14 -1 2065 4.8932740464806557e-03 15
            16 1867 2.8340840339660645e-01 -2 -3 2567
            3.1657025218009949e-02 17 18 1467 1.6831105947494507e-01 19
            20 1307 -6.1627291142940521e-03 21 22 963
            -1.3772929087281227e-03 23 24 2172 2.3059523105621338e-01 -4
            -5 0 -1.1591571383178234e-02 -6 -7 2937
            5.0352478027343750e-01 -8 -9 1927 -2.3179778829216957e-02
            -10 -11 3350 -1.0712811350822449e-01 -12 -13 525
            -2.5378361344337463e-02 -14 -15 2890 6.6820979118347168e-02
            -16 -17 708 -7.1885129436850548e-03 -18 -19 1548
            -2.0425140857696533e-01 -20 -21 3209 9.6046701073646545e-02
            -22 -23 3034 -1.2000767886638641e-01 -24 -25 3957
            3.2425194978713989e-02</internalNodes>
          <leafValues>
            -1. -1. -1. 9.8250335454940796e-01 -1. 1.
            -7.7068668603897095e-01 7.0175319910049438e-01
            7.8781765699386597e-01 -5.3656154870986938e-01
            1.7055556178092957e-01 -6.7803424596786499e-01
            9.6116924285888672e-01 -1. -3.0942687392234802e-01
            4.1170480847358704e-01 -1.0258204489946365e-01
            4.7262883186340332e-01 9.1107523441314697e-01
            -8.4060317277908325e-01 7.0838481187820435e-01
            -4.5498174428939819e-01 3.2919922471046448e-01
            -6.7817211151123047e-01 5.9727251529693604e-01
            -5.5578529834747314e-01</leafValues></_></weakClassifiers></_>
    <!-- stage 1 -->
    <_>
      <maxWeakCount>4</maxWeakCount>
      <stageThreshold>-1.4393856525421143e+00</stageThreshold>
      <weakClassifiers>
        <_>
          <internalNodes>
            1 2 921 9.8829805850982666e-01 3 4 920
            9.0870797634124756e-01 5 6 1986 1.2145406007766724e-01 7 8
            902 9.5566749572753906e-01 9 10 1002 1.1839959025382996e-01
            11 12 2669 1.3599461317062378e-01 13 14 1080
            9.8998546600341797e-02 15 16 3404 1.0319347679615021e-01 17
            18 1287 9.0132817625999451e-02 19 20 169
            -7.0721041411161423e-03 21 22 1075 3.6500182747840881e-01 23
            24 2448 1.2962624430656433e-01 0 -1 13
            -2.9372245073318481e-02 25 26 445 1.9749218225479126e-01 27
            28 375 5.3710538148880005e-01 -2 -3 900
            8.0646502971649170e-01 -4 -5 3766 1.3638046383857727e-01 -6
            -7 3820 2.4332858622074127e-02 -8 -9 1672
            -2.7177758514881134e-02 -10 -11 72 -1.2360017001628876e-01
            -12 -13 13 2.6255739852786064e-02 -14 -15 4093
            2.3692436516284943e-02 -16 -17 441 -2.3781213909387589e-02
            -18 -19 1627 9.2283144593238831e-02 -20 -21 46
            1.2841123156249523e-02 -22 -23 1064 -1.1236206442117691e-01
            -24 -25 58 1.0711529850959778e-01 -26 -27 264
            -4.5528164505958557e-01 -28 -29 3687 3.0083123594522476e-02</internalNodes>
          <leafValues>
            -1. 1. -6.6116452217102051e-01 6.8965518474578857e-01
            1.4525139704346657e-02 8.2795697450637817e-01
            8.9453125000000000e-01 -2.3076923191547394e-01
            8.7500000000000000e-01 -5.7142859697341919e-01 1. -1. 1. -1.
            8.7687689065933228e-01 -5.3846156597137451e-01 1. -1.
            -9.2432433366775513e-01 6.3636362552642822e-01 1. -1.
            7.7777779102325439e-01 -7.7181208133697510e-01 1. -1.
            -3.3333334326744080e-01 8.9773100614547729e-01
            -9.2307692766189575e-01 4.1176471114158630e-01</leafValues></_>
        <_>
          <internalNodes>
            1 2 1458 1.0017460584640503e+00 3 4 2440
            1.7772093415260315e-01 5 6 1254 -4.1626942157745361e-01 7 8
            245 1.5198816359043121e-01 9 10 2419 1.9611181691288948e-02
            11 0 1150 4.1063314676284790e-01 12 13 208
            -6.4368776977062225e-02 14 15 2503 9.0151444077491760e-02 16
            17 2110 -3.5295333713293076e-02 18 19 2326
            -1.7065513879060745e-02 20 21 3234 1.1795604228973389e-01 -1
            -2 3396 9.2988293617963791e-03 -3 22 1969
            1.6256939619779587e-02 23 24 1124 -4.4223468750715256e-02 -4
            -5 507 1.3789108395576477e-01 -6 -7 748
            -1.2159977108240128e-02 -8 -9 470 -1.2155926786363125e-02
            -10 -11 2205 -2.6551086455583572e-02 -12 -13 2857
            1.1116410791873932e-01 -14 -15 4060 -9.1185584664344788e-02
            -16 -17 2975 -9.4269394874572754e-02 -18 -19 1073
            6.7797616124153137e-02 -20 -21 313 -8.4779754281044006e-02
            -22 -23 216 -7.9732671380043030e-02 -24 -25 1382
            3.9297309517860413e-01</internalNodes>
          <leafValues>
            1. 1. -1. 1. -5.9019660949707031e-01 1.5210196375846863e-01
            -6.8625104427337646e-01 5.5905395746231079e-01
            6.8380153179168701e-01 -2.8831177949905396e-01
            4.5593839883804321e-01 -3.0765491724014282e-01
            -2.8818190097808838e-01 6.3800358772277832e-01
            -2.1946503221988678e-01 8.5075587034225464e-01
            4.8600649833679199e-01 -4.3308126926422119e-01
            8.3185923099517822e-01 -8.7963640689849854e-01 1. -1. 1.
            -9.5547062158584595e-01 9.3408584594726562e-01
            -5.2259510755538940e-01</leafValues></_>
        <_>
          <internalNodes>
            1 2 46 -5.8352774940431118e-03 3 0 1075
            1.2734963893890381e+00 4 5 997 1.1613166332244873e+00 6 7
            3073 -1.0556703060865402e-01 8 9 4038
            -1.2879729270935059e-02 10 11 781 -3.2146688550710678e-02 12
            13 1080 1.4498861134052277e-01 14 15 902
            1.1640347242355347e+00 16 17 1288 -2.1648380905389786e-02 18
            19 2168 4.4692412018775940e-02 -1 -2 1270
            5.1274932920932770e-02 -3 20 581 -4.7046076506376266e-02 -4
            -5 2106 2.1341910958290100e-01 -6 -7 263
            -4.6622726321220398e-01 -8 -9 2159 1.7976078391075134e-01
            -10 -11 2587 -2.9669817537069321e-02 -12 -13 2022
            1.3314995169639587e-01 -14 -15 2286 1.3380264863371849e-02
            -16 -17 2109 2.9937162995338440e-02 -18 -19 511
            -3.9073877036571503e-02 -20 -21 841 5.4965686798095703e-01</internalNodes>
          <leafValues>
            1. 1. -1. -9.4170033931732178e-01 -9.3052113056182861e-01 1.
            -1. 9.8532831668853760e-01 -5.9770494699478149e-01
            5.1856529712677002e-01 9.3867206573486328e-01
            -7.2737056016921997e-01 -8.3883702754974365e-01 1.
            1.2237105518579483e-02 -6.2213212251663208e-01
            -1.0229551233351231e-02 4.4946345686912537e-01
            -3.7666341662406921e-01 6.9168341159820557e-01
            9.8933833837509155e-01 -2.4952109158039093e-01</leafValues></_>
        <_>
          <internalNodes>
            1 2 3381 -8.8515967130661011e-02 3 4 1893
            1.2893113493919373e-01 5 6 704 8.2802716642618179e-03 7 8
            206 -4.4574581086635590e-02 9 10 539 -1.0277386009693146e-01
            11 12 4030 5.9638079255819321e-03 13 14 2811
            1.3531026244163513e-01 15 16 1005 1.8996307253837585e-01 17
            18 4028 2.0340822637081146e-02 0 19 3767
            -8.5815310478210449e-02 20 -1 1385 8.2138121128082275e-02 21
            22 609 4.8167170025408268e-03 23 24 3643
            -5.7909384369850159e-02 25 26 2151 8.3257782459259033e-01 27
            28 2542 8.8545158505439758e-02 -2 -3 3213
            -9.0065568685531616e-02 -4 -5 1833 -1.6123181208968163e-02
            -6 -7 99 -1.1145488023757935e+00 -8 -9 368
            4.1901312768459320e-02 -10 -11 731 1.1358161270618439e-01
            -12 -13 1580 5.5795736610889435e-02 -14 -15 1574
            -6.5426919609308243e-03 -16 -17 3089 -2.0901221781969070e-02
            -18 -19 1055 -2.2944407537579536e-03 -20 -21 2345
            1.2113091945648193e+00 -22 -23 2994 -4.6390894800424576e-02
            -24 -25 421 -4.4285565614700317e-02 -26 -27 160
            -3.5841576755046844e-02 -28 -29 460 4.6337676048278809e-01</internalNodes>
          <leafValues>
            -1. 8.7565970420837402e-01 1. -9.8910975456237793e-01 -1.
            9.4077014923095703e-01 -1. 6.9816923141479492e-01
            -9.7716647386550903e-01 1. 9.3067330121994019e-01 -1.
            -9.4956880807876587e-01 6.7131072282791138e-01
            -2.1669796109199524e-01 3.1621026992797852e-01
            6.8052136898040771e-01 -3.3491036295890808e-01
            -6.1927938461303711e-01 3.6321282386779785e-01
            -5.7199168205261230e-01 1. 3.9192223548889160e-01
            -8.2067877054214478e-01 -1. 1. 1. -1. 1. -1.</leafValues></_></weakClassifiers></_>
    <!-- stage 2 -->
    <_>
      <maxWeakCount>5</maxWeakCount>
      <stageThreshold>-1.3771080970764160e+00</stageThreshold>
      <weakClassifiers>
        <_>
          <internalNodes>
            1 2 921 1.1954416036605835e+00 3 4 3286
            9.7143031656742096e-02 5 6 1148 1.3925147056579590e-01 7 8
            3728 7.1870364248752594e-02 9 10 144 -4.2582491040229797e-01
            0 11 1127 -5.3968302905559540e-02 12 13 2454
            1.7678873240947723e-01 14 15 3349 7.7183403074741364e-02 16
            17 3955 8.2214057445526123e-02 18 19 3376
            -5.2093114703893661e-02 20 21 1217 -4.1616745293140411e-02
            22 -1 329 8.4068465232849121e-01 23 24 2205
            5.0049878656864166e-02 25 26 375 -5.5316448211669922e-01 -2
            -3 793 1.0783135890960693e+00 -4 -5 3661
            -8.1789307296276093e-02 -6 -7 3958 -1.7013087868690491e-01
            -8 -9 3568 -8.6641050875186920e-02 -10 -11 1970
            -2.4267658591270447e-02 -12 -13 2504 2.4472009390592575e-02
            -14 -15 2648 -1.0480441153049469e-01 -16 -17 496
            6.1735272407531738e-02 -18 -19 2631 -2.5750948116183281e-02
            -20 -21 2052 1.1092770099639893e-01 -22 -23 363
            1.1352770030498505e-01 -24 -25 3672 3.4871324896812439e-02
            -26 -27 375 4.4816389679908752e-01</internalNodes>
          <leafValues>
            1. 1. -6.9481354951858521e-01 6.5354329347610474e-01
            8.4615385532379150e-01 1.3698630034923553e-02
            8.4696567058563232e-01 -3.3202743530273438e-01
            -6.3636362552642822e-01 8.6809271574020386e-01
            -5.7142859697341919e-01 8.0000001192092896e-01
            -8.0606061220169067e-01 5.2380955219268799e-01
            8.6666667461395264e-01 -6.8181818723678589e-01
            7.8524589538574219e-01 -7.2727274894714355e-01 1.
            -9.1176468133926392e-01 -7.3793101310729980e-01
            6.4999997615814209e-01 1. -1. -8.5454547405242920e-01
            7.7777779102325439e-01 8.9742630720138550e-01
            -2.2772277891635895e-01</leafValues></_>
        <_>
          <internalNodes>
            1 2 1458 1.1597890853881836e+00 3 4 3323
            1.0766434669494629e-01 5 6 664 -4.2429900169372559e-01 7 8
            2151 8.4285092353820801e-01 9 10 4072 3.3236112445592880e-02
            11 12 929 2.2817935794591904e-02 13 14 713
            -4.9487188458442688e-02 15 16 2571 -4.6013802289962769e-02
            17 18 2283 -1.4431759715080261e-02 19 20 4029
            -1.5439012087881565e-02 21 22 3390 -3.2308403402566910e-02 0
            -1 1 5.6880498304963112e-03 -2 -3 24 -3.7939831614494324e-02
            23 24 555 -1.1655012145638466e-02 25 26 3228
            -7.3020339012145996e-02 -4 -5 3174 -2.4338617920875549e-02
            -6 -7 1596 7.0756053924560547e-01 -8 -9 4092
            2.8303809813223779e-04 -10 -11 1773 -4.2220842838287354e-01
            -12 -13 1309 8.0517204478383064e-03 -14 -15 3503
            2.2845055907964706e-02 -16 -17 102 -1.6833475232124329e-01
            -18 -19 1455 9.1522181034088135e-01 -20 -21 1458
            1.4174342155456543e+00 -22 -23 3 -6.2067913822829723e-03 -24
            -25 1605 1.3513390719890594e-01 -26 -27 2363
            2.9431468248367310e-01</internalNodes>
          <leafValues>
            1. -1. 1. -1. -4.1975840926170349e-01 5.3421968221664429e-01
            -3.7108048796653748e-01 5.0256806612014771e-01
            -9.0808677673339844e-01 1. -3.8409307599067688e-01
            9.6479529142379761e-01 2.5851121544837952e-01
            -8.1533157825469971e-01 8.5678064823150635e-01
            9.8713383078575134e-02 -7.7661919593811035e-01
            9.2073380947113037e-01 -4.7766536474227905e-01 1.
            -7.7135080099105835e-01 1. -1. 1. -8.4032499790191650e-01 1.
            9.7451686859130859e-01 -5.0115907192230225e-01</leafValues></_>
        <_>
          <internalNodes>
            1 2 1524 7.9517942667007446e-01 3 4 2515
            8.2460367679595947e-01 5 6 610 1.1586746200919151e-02 7 8
            2606 -3.5363182425498962e-02 9 10 4070
            -6.3262864947319031e-02 11 12 1602 8.0968074500560760e-02 0
            13 3913 -1.4507703483104706e-02 14 15 925
            1.2711101770401001e-01 16 17 3402 8.6028367280960083e-02 -1
            -2 566 1.0686322348192334e-03 18 19 3835
            -1.3599790632724762e-02 20 -3 70 2.6082947850227356e-02 21
            -4 1964 3.0813556909561157e-01 -5 -6 684
            8.6325564188882709e-04 -7 -8 340 7.1852445602416992e-02 -9
            -10 716 4.7462023794651031e-02 -11 -12 1685
            4.3639514595270157e-02 -13 -14 3248 2.0043261349201202e-01
            -15 -16 3728 1.8619981408119202e-01 -17 -18 456
            -9.6905454993247986e-02 -19 -20 66 2.9042340815067291e-02
            -21 -22 3571 -5.7038977742195129e-02</internalNodes>
          <leafValues>
            1. -1. 1. 1. -1. -1. 1. -2.6783138513565063e-01
            4.3202599883079529e-01 7.6872801780700684e-01
            -1.2243571877479553e-01 -2.9704174399375916e-01
            1.9375877082347870e-01 8.6966333910822868e-03
            7.8133201599121094e-01 -6.8071466684341431e-01 1. -1.
            9.6899020671844482e-01 1. -1. -3.6231052875518799e-01
            9.6714544296264648e-01</leafValues></_>
        <_>
          <internalNodes>
            1 2 4032 -3.2359389588236809e-03 3 4 1680
            -4.0765952318906784e-02 5 6 4032 3.4831946250051260e-03 7 8
            1925 1.5946190804243088e-02 9 10 1772
            -4.2757276445627213e-02 11 12 1625 1.3014039024710655e-02 13
            14 424 4.3943535536527634e-02 15 16 2184
            -4.8655938357114792e-02 17 18 1206 -4.6671807765960693e-02
            19 20 1818 -2.2148892283439636e-02 21 22 2706
            5.8185480535030365e-02 23 24 1210 2.2619161754846573e-02 25
            26 325 -3.2205555588006973e-02 27 28 828
            -4.5896984636783600e-02 29 30 1648 -6.1976592987775803e-02 0
            -1 1187 -2.5096878409385681e-01 -2 -3 4024
            -1.2443071231245995e-02 -4 -5 3568 -2.9535628855228424e-02
            -6 -7 459 -2.5650560855865479e-01 -8 -9 3642
            1.0552740097045898e-01 -10 -11 568 -1.3197876513004303e-02
            -12 -13 1087 1.1609416455030441e-01 -14 -15 630
            -4.6652439981698990e-02 -16 -17 282 6.7906379699707031e-02
            -18 -19 4012 -9.0928506106138229e-03 -20 -21 3741
            1.8524080514907837e-02 -22 -23 4039 4.1820563375949860e-02
            -24 -25 2575 -2.8249725699424744e-02 -26 -27 289
            -4.8963306471705437e-03 -28 -29 2570 -3.7137971958145499e-04
            -30 -31 3493 5.6965887546539307e-02</internalNodes>
          <leafValues>
            5.9297490119934082e-01 -9.7822201251983643e-01
            -5.2139353752136230e-01 6.6275954246520996e-01
            -8.8963383436203003e-01 9.2807787656784058e-01 1. -1.
            -7.3479491472244263e-01 1. -7.7010059356689453e-01
            4.5999681949615479e-01 -7.4925690889358521e-01
            7.0601522922515869e-01 8.6832898855209351e-01
            -3.9497658610343933e-01 -2.9151228070259094e-01
            4.0697693824768066e-01 -1.4752204716205597e-01
            5.0867968797683716e-01 2.5910556316375732e-01
            -7.4521958827972412e-01 6.4276164770126343e-01
            -4.5791676640510559e-01 3.5201570391654968e-01
            -6.8722963333129883e-01 -6.1479282379150391e-01
            2.0907016098499298e-01 9.6552014350891113e-01
            -5.9610897302627563e-01 -7.9842418432235718e-01
            7.4911588430404663e-01</leafValues></_>
        <_>
          <internalNodes>
            1 2 1749 1.4847962185740471e-02 3 4 719
            7.7276658266782761e-03 5 6 1646 -2.5973914191126823e-02 7 8
            3595 -8.5937097668647766e-02 9 10 2162
            -6.6237799823284149e-02 11 12 200 -9.7735077142715454e-03 13
            14 2959 -3.5444371402263641e-02 15 16 688
            2.5566807016730309e-02 17 18 3639 4.8039693385362625e-02 19
            20 802 1.4602172374725342e-01 21 22 431
            -3.0310940928757191e-03 23 24 3949 1.0975602269172668e-01 25
            26 1825 -1.6670443117618561e-02 27 28 2782
            -5.4488107562065125e-03 29 30 577 1.7030954360961914e-01 0
            -1 3105 -8.9488968253135681e-02 -2 -3 1512
            7.6949551701545715e-02 -4 -5 3408 -5.9892259538173676e-02 -6
            -7 2324 1.5444980002939701e-02 -8 -9 2621
            -5.7018008083105087e-03 -10 -11 3738 -3.3765234053134918e-02
            -12 -13 2952 6.3456282019615173e-02 -14 -15 298
            9.6138184890151024e-03 -16 -17 438 3.3954039216041565e-01
            -18 -19 716 4.3577361851930618e-02 -20 -21 3416
            7.0080839097499847e-02 -22 -23 204 -2.4036936461925507e-02
            -24 -25 2625 6.6808268427848816e-02 -26 -27 2326
            -1.6879400238394737e-02 -28 -29 3660 1.1660579591989517e-01
            -30 -31 1838 -2.4168916046619415e-02</internalNodes>
          <leafValues>
            -1. 7.3979395627975464e-01 -7.8667211532592773e-01 1.
            4.9636965990066528e-01 -2.1346056461334229e-01
            5.3868758678436279e-01 -2.2883372008800507e-01
            -9.6162581443786621e-01 2.5738421082496643e-01 -1.
            9.3196195363998413e-01 -7.1899884939193726e-01
            5.4330688714981079e-01 8.7540037930011749e-02
            -6.2104827165603638e-01 -6.1344212293624878e-01 1.
            9.6131926774978638e-01 -1. -8.3464902639389038e-01
            8.8601160049438477e-01 -7.2167867422103882e-01
            6.7709219455718994e-01 -8.2242858409881592e-01
            9.0102463960647583e-01 -4.7629445791244507e-01
            5.9744149446487427e-01 -7.0142120122909546e-01
            1.7367374897003174e-01 -9.3077349662780762e-01
            8.6569648981094360e-01</leafValues></_></weakClassifiers></_>
    <!-- stage 3 -->
    <_>
      <maxWeakCount>6</maxWeakCount>
      <stageThreshold>-1.2512640953063965e+00</stageThreshold>
      <weakClassifiers>
        <_>
          <internalNodes>
            1 2 921 1.3332815170288086e+00 3 4 1356
            1.0483242273330688e+00 5 6 921 1.6721186637878418e+00 7 8
            1146 1.1543992757797241e+00 9 10 3927
            -2.4944720789790154e-02 11 12 1830 -1.0455496609210968e-02
            13 14 2454 2.4647869169712067e-01 15 16 2435
            1.1173226833343506e+00 17 18 1199 2.5385537743568420e-01 19
            0 3652 1.8611107766628265e-01 20 21 3926
            3.6284033209085464e-02 -1 22 2407 -1.0787227749824524e-01 23
            24 288 1.0036394596099854e+00 25 -2 2382
            9.9494844675064087e-02 26 27 1165 -6.8928682804107666e-01 -3
            -4 902 1.1470059156417847e+00 -5 -6 2711
            -9.3441009521484375e-03 -7 -8 3796 -6.0646578669548035e-02
            -9 -10 1102 1.9553396850824356e-02 -11 -12 649
            4.0429987013339996e-02 -13 -14 1822 -2.1162116900086403e-02
            -15 -16 64 2.8515480458736420e-02 -17 -18 2434
            3.6857473850250244e-01 -19 -20 2303 -1.8842581659555435e-02
            -21 -22 2521 7.4874289333820343e-02 -23 -24 13
            3.7535972893238068e-02 -25 -26 2585 -1.4438617229461670e-01
            -27 -28 3890 -3.4799426794052124e-02</internalNodes>
          <leafValues>
            1. 1. 7.5000000000000000e-01 -4.5248022675514221e-01
            6.5277779102325439e-01 -6.6666668653488159e-01
            7.2827804088592529e-01 8.7500000000000000e-01
            -5.4838711023330688e-01 8.5259634256362915e-01 -1. -1. 1.
            -3.3333334326744080e-01 8.9238846302032471e-01 -1. 1.
            -7.5757575035095215e-01 8.3333331346511841e-01
            -1.8750000000000000e-01 7.2143340110778809e-01
            -5.5844157934188843e-01 1. -1. 1. 8.6666667461395264e-01
            -7.1428573131561279e-01 3.9130434393882751e-01
            9.6593964099884033e-01</leafValues></_>
        <_>
          <internalNodes>
            1 2 997 1.0972573757171631e+00 3 4 4074
            -1.1486653238534927e-02 5 6 1173 -3.1200572848320007e-02 7 8
            1967 1.5729117393493652e-01 9 10 4084
            -7.2788409888744354e-03 11 12 1487 -4.5878194272518158e-02
            13 14 496 -1.8407385796308517e-02 15 16 2694
            -1.3119643926620483e-01 17 18 1236 5.8679863810539246e-02 19
            20 2099 8.8844072818756104e-01 21 22 4064
            -5.9221917763352394e-03 0 23 2069 -1.9682053476572037e-02 24
            -1 3069 1.3562715053558350e-01 25 26 2539
            -1.9729889929294586e-02 27 28 746 -1.3545144349336624e-02 -2
            -3 497 -1.2346040457487106e-02 -4 -5 2201
            1.7319171130657196e-01 -6 -7 641 -3.6212570965290070e-02 -8
            -9 2061 -9.6365422010421753e-02 -10 -11 1083
            2.2900217771530151e-01 -12 -13 1975 5.7061020284891129e-02
            -14 -15 3850 1.4523431658744812e-02 -16 -17 1486
            -1.2322510778903961e-01 -18 -19 7 -8.9779183268547058e-02
            -20 -21 2540 -1.8059217929840088e-01 -22 -23 250
            -3.1812291592359543e-02 -24 -25 2696 6.3645184040069580e-02
            -26 -27 3283 1.4202737808227539e-01 -28 -29 3173
            -3.8845911622047424e-02</internalNodes>
          <leafValues>
            -8.4424191713333130e-01 1. -8.6670345067977905e-01
            8.1051021814346313e-01 -7.0212024450302124e-01
            7.1595162153244019e-01 -7.9809749126434326e-01
            5.9108757972717285e-01 7.7326738834381104e-01
            -6.9336640834808350e-01 -4.9796247482299805e-01
            6.2480241060256958e-01 9.0829938650131226e-01
            -8.2307845354080200e-01 -9.1185912489891052e-02
            -6.6006833314895630e-01 6.6462886333465576e-01
            1.7930644750595093e-01 -1. 1. 1. -9.7943818569183350e-01 -1.
            9.0975105762481689e-01 -8.3952629566192627e-01 1.
            -7.5988119840621948e-01 6.7195326089859009e-01
            -4.9216821789741516e-01 9.1355162858963013e-01</leafValues></_>
        <_>
          <internalNodes>
            1 2 1955 8.8138902187347412e-01 3 4 2587
            -9.7069054841995239e-02 5 6 1703 2.6483852416276932e-02 7 8
            2105 9.5422044396400452e-02 9 10 3341 9.7332634031772614e-02
            11 12 1309 -2.9332205653190613e-02 13 14 2395
            1.8302372191101313e-03 15 16 1891 1.0791699588298798e-01 17
            18 1434 -1.7326135188341141e-02 19 20 1667
            1.8595804274082184e-01 21 22 1163 8.5699930787086487e-02 0
            -1 56 8.3225406706333160e-02 -2 23 1779
            -2.0546391606330872e-02 -3 -4 2 1.4141868799924850e-02 -5 -6
            2 -1.9009279087185860e-02 -7 -8 1629 5.9072144329547882e-02
            -9 -10 2107 1.2678599357604980e-01 -11 -12 3688
            1.3120381534099579e-01 -13 -14 3792 -6.0965351760387421e-02
            -15 -16 2316 1.7778992652893066e-01 -17 -18 2302
            -1.7853822559118271e-02 -19 -20 3336 -5.3127862513065338e-02
            -21 -22 2924 8.5937663912773132e-02 -23 -24 3541
            -4.5593470335006714e-02</internalNodes>
          <leafValues>
            -1. 1. -8.7014335393905640e-01 -1. 1. -1. 1.
            -5.0054585933685303e-01 1.7024806141853333e-01
            -2.4574808776378632e-02 6.6711097955703735e-01
            -4.1300410032272339e-01 8.2782053947448730e-01
            -8.7471354007720947e-01 8.1776344776153564e-01
            -3.3279529213905334e-01 3.1751173734664917e-01
            -8.2661110162734985e-01 7.2004431486129761e-01 1.
            -7.5128108263015747e-01 -1.2348162382841110e-01
            8.4121692180633545e-01 -1. 9.2748534679412842e-01</leafValues></_>
        <_>
          <internalNodes>
            1 2 1298 -1.1391449719667435e-02 3 4 2202
            1.5702030062675476e-01 5 6 397 -1.4026306569576263e-02 7 8
            1298 -2.5047950446605682e-02 9 0 3348
            -1.3092212378978729e-02 10 11 2934 -6.6086128354072571e-02
            12 13 292 -4.1832672432065010e-03 -1 14 3422
            -2.5194182991981506e-01 15 16 1308 -7.9008210450410843e-03
            -2 -3 654 -2.5251978635787964e-01 17 18 477
            -1.3673745095729828e-02 19 20 2148 1.3072121143341064e-01 21
            22 2284 9.0410802513360977e-03 23 24 2055
            5.4974976927042007e-02 -4 -5 2020 -1.3175703585147858e-01 -6
            -7 2204 -7.1595370769500732e-02 -8 -9 2353
            1.8285887315869331e-02 -10 -11 76 -1.7054969072341919e-01
            -12 -13 4058 -7.3358960449695587e-02 -14 -15 2178
            5.4352141916751862e-02 -16 -17 425 1.6038744151592255e-01
            -18 -19 1587 -2.4264900013804436e-02 -20 -21 3456
            -1.2853071093559265e-01 -22 -23 2117 1.4208133518695831e-01
            -24 -25 1801 -7.4166893027722836e-03</internalNodes>
          <leafValues>
            -1. 9.0604823827743530e-01 -1. 1. 1. -8.9517438411712646e-01
            1. -9.3566727638244629e-01 -1.1391689628362656e-01
            -8.0402392148971558e-01 1. -1. -7.7127093076705933e-01
            9.4953286647796631e-01 -7.4500823020935059e-01
            4.7815921902656555e-01 -1. 1. 2.7795964479446411e-01
            -2.0739814639091492e-01 4.0826240181922913e-01
            -8.0237072706222534e-01 -1.4640562236309052e-02
            4.1336464881896973e-01 -1.9582388922572136e-02
            6.5263330936431885e-01</leafValues></_>
        <_>
          <internalNodes>
            1 2 1169 -6.0825971886515617e-03 3 4 1321
            1.0415939986705780e-01 5 6 2123 -3.4873295575380325e-02 7 8
            2913 8.7346941232681274e-02 9 10 591 3.0909009277820587e-02
            11 12 1213 -1.5449965372681618e-02 13 14 2701
            -3.3944740891456604e-02 15 16 2041 -1.5554007887840271e-01
            17 18 133 1.6738622216507792e-03 19 0 2301
            4.9321796745061874e-02 20 -1 3835 1.0160590521991253e-02 21
            22 971 4.5272342860698700e-02 23 24 1839
            -3.6683969199657440e-02 25 26 622 -2.7703538537025452e-02 27
            28 1075 1.3651843070983887e+00 -2 -3 3408
            4.3383404612541199e-02 -4 -5 1772 4.2514964938163757e-02 -6
            -7 305 -8.6546838283538818e-02 -8 -9 4084
            -9.6415067091584206e-03 -10 -11 242 2.2576399147510529e-01
            -12 -13 763 -2.7208009734749794e-02 -14 -15 3720
            2.4289146065711975e-02 -16 -17 1704 9.7912326455116272e-03
            -18 -19 687 8.9459538459777832e-02 -20 -21 952
            -2.5859266519546509e-02 -22 -23 2102 -1.3966394960880280e-01
            -24 -25 1312 -6.4351484179496765e-02 -26 -27 2572
            -2.9451310634613037e-02 -28 -29 551 1.8765956163406372e-02</internalNodes>
          <leafValues>
            8.1050062179565430e-01 -7.4324756860733032e-01
            -3.4439513087272644e-01 5.2387040853500366e-01
            -6.2151515483856201e-01 -9.6499705687165260e-03
            7.9775112867355347e-01 -7.0722723007202148e-01 -1.
            8.0003762245178223e-01 -1. 1. -1. 9.7256374359130859e-01
            -8.6395406723022461e-01 2.7175819873809814e-01
            -9.3347859382629395e-01 9.8263710737228394e-01
            -8.0892491340637207e-01 8.0086219310760498e-01
            -8.6252123117446899e-01 5.2095550298690796e-01
            8.9050269126892090e-01 -8.2845455408096313e-01
            -4.5283415913581848e-01 5.2509450912475586e-01
            1.3343638181686401e-01 -2.6984348893165588e-01
            9.2584770917892456e-01 -9.1543179750442505e-01</leafValues></_>
        <_>
          <internalNodes>
            1 2 4028 -5.7918690145015717e-03 3 4 2657
            -3.8665927946567535e-02 5 6 1586 -3.5707727074623108e-02 7 8
            256 -3.1070344150066376e-02 9 10 2099 7.8917431831359863e-01
            11 12 2292 -8.4116179496049881e-03 13 14 4049
            -1.0689043439924717e-02 15 0 268 2.2404818236827850e-01 16
            17 2827 1.1729127727448940e-02 18 19 2429
            9.4544517993927002e-01 20 21 2177 -9.8411869257688522e-03 22
            23 16 -2.8269542381167412e-03 24 25 1341
            -1.7524182796478271e-02 26 27 3739 9.4658419489860535e-02 28
            29 414 -2.5937629863619804e-02 -1 -2 2103
            2.3597168922424316e-01 -3 -4 2834 -2.8006531298160553e-02 -5
            -6 826 5.6892771273851395e-02 -7 -8 2416
            -6.1040244996547699e-02 -9 -10 165 -7.4287867173552513e-03
            -11 -12 840 -8.4517775103449821e-03 -13 -14 1442
            2.5356025435030460e-03 -15 -16 452 -2.4496309459209442e-01
            -17 -18 1301 1.1700505390763283e-02 -19 -20 2891
            5.7673212140798569e-02 -21 -22 3203 -1.1634780094027519e-02
            -23 -24 1998 9.4808802008628845e-02 -25 -26 482
            1.8868677318096161e-02 -27 -28 1 -5.1404144614934921e-03 -29
            -30 3406 3.6889657378196716e-02</internalNodes>
          <leafValues>
            7.7418345212936401e-01 -1. 1. -4.4073545932769775e-01
            7.2913539409637451e-01 -9.4935560226440430e-01 1.
            -1.2635852396488190e-01 -6.9495636224746704e-01 -1. 1.
            -9.5403379201889038e-01 8.5415720939636230e-01
            9.3339973688125610e-01 -7.6748448610305786e-01
            5.2638775110244751e-01 -9.3884545564651489e-01
            3.4642773866653442e-01 -8.6358410120010376e-01
            -4.5874652266502380e-01 7.5011640787124634e-01
            8.1865555047988892e-01 3.7000450491905212e-01
            -6.8295931816101074e-01 2.7347356081008911e-01
            7.9808813333511353e-01 -1. -3.2574611902236938e-01
            3.7091204524040222e-01 -1.9306030869483948e-01
            3.4681767225265503e-01</leafValues></_></weakClassifiers></_>
    <!-- stage 4 -->
    <_>
      <maxWeakCount>5</maxWeakCount>
      <stageThreshold>-1.2449870109558105e+00</stageThreshold>
      <weakClassifiers>
        <_>
          <internalNodes>
            1 2 1078 2.1308976411819458e-01 3 4 902
            1.2103981971740723e+00 5 6 921 1.6044942140579224e+00 7 8
            2582 7.5226014852523804e-01 9 10 886 -4.1767060756683350e-02
            11 12 2661 -8.5028126835823059e-02 13 14 3231
            -4.1139222681522369e-02 15 16 1660 1.4085575938224792e-01 17
            18 1466 6.4018800854682922e-02 0 -1 5 4.3030261993408203e-02
            19 20 407 -3.8339916616678238e-02 21 22 4054
            -2.1028475835919380e-02 23 24 2596 1.1312538385391235e-01 25
            26 3101 -5.0897434353828430e-02 27 28 1148
            2.4155062437057495e-01 -2 -3 2345 1.2235856056213379e+00 -4
            -5 2563 3.7610378116369247e-02 -6 -7 3562
            -2.4112008512020111e-02 -8 -9 111 1.6039207577705383e-01 -10
            -11 2138 5.2324518561363220e-02 -12 -13 446
            4.3025147914886475e-01 -14 -15 3346 -2.5700200349092484e-02
            -16 -17 4085 -1.5396283939480782e-02 -18 -19 4104
            6.9016623310744762e-03 -20 -21 3306 -5.4205119609832764e-02
            -22 -23 1294 -2.1181445568799973e-02 -24 -25 1596
            7.5349736213684082e-01 -26 -27 3136 4.4322460889816284e-03
            -28 -29 264 5.7016575336456299e-01</internalNodes>
          <leafValues>
            -1. 1. -5.8251231908798218e-01 5.4066985845565796e-01
            5.8730161190032959e-01 -3.3333334326744080e-01
            -3.0000001192092896e-01 8.5150814056396484e-01
            -6.1702126264572144e-01 1. -5.3846156597137451e-01
            8.1818181276321411e-01 9.0948277711868286e-01
            -5.5555558204650879e-01 6.8181818723678589e-01
            -1.6666667163372040e-01 1.2987012974917889e-02
            8.3753043413162231e-01 2.2190408781170845e-02
            -5.4607510566711426e-01 -2.5423729419708252e-01
            7.8352940082550049e-01 -5.7142859697341919e-01
            8.5365855693817139e-01 -5.8333331346511841e-01
            6.6666668653488159e-01 -9.0909093618392944e-01 1.
            9.2946404218673706e-01 -7.3333334922790527e-01</leafValues></_>
        <_>
          <internalNodes>
            1 2 2033 7.3851227760314941e-01 3 4 2978
            7.2910174727439880e-02 5 6 2006 -2.0476847887039185e-02 7 8
            3376 -7.8181609511375427e-02 9 10 24 -2.3390904068946838e-02
            11 12 3866 -4.7660954296588898e-02 13 14 1634
            -1.2388204224407673e-02 15 16 3949 6.1056107282638550e-02 17
            18 2856 7.4239626526832581e-02 19 20 3022
            2.0446066558361053e-01 21 22 17 1.9743349403142929e-02 0 -1
            442 4.7464683651924133e-02 23 -2 1330 4.1545324027538300e-02
            24 25 4059 1.2788825668394566e-02 26 27 235
            -5.7733234018087387e-02 -3 -4 2398 -1.9972799345850945e-02
            -5 -6 3553 -1.4334427192807198e-02 -7 -8 2540
            8.9580856263637543e-02 -9 -10 3390 4.6753995120525360e-02
            -11 -12 3632 3.1494580209255219e-02 -13 -14 4080
            2.8700683265924454e-02 -15 -16 2307 6.0201082378625870e-02
            -17 -18 4106 -5.8576227165758610e-03 -19 -20 2944
            9.4616688787937164e-02 -21 -22 1549 1.6596600413322449e-01
            -23 -24 597 -8.2830250263214111e-02 -25 -26 335
            -7.9323649406433105e-02 -27 -28 1344 -1.7458632588386536e-01</internalNodes>
          <leafValues>
            1. -1. 1. -5.3553324937820435e-01 2.3756733536720276e-01
            -2.9087710380554199e-01 7.6055628061294556e-01
            -5.6076496839523315e-01 -6.7406877875328064e-02
            -9.0181037783622742e-02 7.3370027542114258e-01
            4.2286127805709839e-01 -4.9410572648048401e-01
            8.5165733098983765e-01 -7.2776573896408081e-01
            7.3384028673171997e-01 -1.7507663369178772e-01
            -5.6232899427413940e-01 2.2234708070755005e-01
            -9.8212599754333496e-01 1. 9.5878326892852783e-01 -1. 1.
            -9.0923184156417847e-01 -5.4417687654495239e-01
            5.9442323446273804e-01 -3.2612389326095581e-01
            8.8202756643295288e-01</leafValues></_>
        <_>
          <internalNodes>
            1 2 4108 4.7213048674166203e-03 3 4 4101
            5.9857545420527458e-03 5 6 2142 -4.3707307428121567e-02 7 8
            4099 -3.4745717421174049e-03 9 10 3513
            -1.1784897651523352e-03 11 12 1489 2.5723856687545776e-01 13
            14 900 9.4980859756469727e-01 15 16 403
            -1.5559458173811436e-02 17 18 740 3.3454552292823792e-02 19
            20 2121 5.0219260156154633e-02 21 22 1596
            9.3699544668197632e-01 23 24 378 1.5613627620041370e-03 25
            26 873 5.5729016661643982e-02 27 28 3046
            5.8708459138870239e-02 0 -1 1327 -5.0867847166955471e-03 -2
            -3 2993 -3.2063558697700500e-02 -4 -5 219
            5.7134915143251419e-02 -6 -7 638 2.9431954026222229e-02 -8
            -9 2166 1.4698034524917603e-01 -10 -11 2101
            1.2783402204513550e-01 -12 -13 3140 5.8615811169147491e-02
            -14 -15 2722 -5.9124298393726349e-02 -16 -17 1311
            1.5729643404483795e-02 -18 -19 2734 -3.2031983137130737e-02
            -20 -21 930 4.5044109225273132e-02 -22 -23 180
            -1.0195024311542511e-02 -24 -25 3545 5.7663107290863991e-03
            -26 -27 913 6.6639876365661621e-01 -28 -29 397
            1.4998268336057663e-02</internalNodes>
          <leafValues>
            -6.5901619195938110e-01 1. 5.6447196006774902e-01
            -5.8216428756713867e-01 2.4073404073715210e-01
            -3.2300046086311340e-01 5.6100869178771973e-01
            -4.8133749514818192e-02 -2.4481074512004852e-01
            6.6003167629241943e-01 -3.0614107847213745e-01
            4.2937430739402771e-01 6.1459940671920776e-01
            -7.8061920404434204e-01 5.0465375185012817e-01
            -5.4099935293197632e-01 9.2763286828994751e-01 -1.
            6.2278807163238525e-01 -9.4570821523666382e-01
            5.9613144397735596e-01 -6.3051468133926392e-01
            -7.0228439569473267e-01 9.1337555646896362e-01
            -8.3505499362945557e-01 6.7917042970657349e-01
            -5.7218450307846069e-01 8.7668257951736450e-01
            8.9902377128601074e-01 -9.3178272247314453e-01</leafValues></_>
        <_>
          <internalNodes>
            1 2 3186 -6.5535837784409523e-03 3 4 2639
            -4.1269145905971527e-02 5 6 3836 -3.6213132552802563e-03 7 8
            3961 7.5590759515762329e-03 9 10 2524
            -6.0296617448329926e-02 11 12 2999 -3.5199448466300964e-02
            13 14 2440 1.8530571460723877e-01 15 16 4071
            -9.9621653556823730e-02 17 0 346 5.5580866336822510e-01 18
            19 2557 -1.9940260797739029e-02 20 21 1
            -3.0678317416459322e-03 22 23 1828 -5.0621870905160904e-03
            24 25 3929 -5.5125825107097626e-02 26 27 354
            3.0511677265167236e-01 28 29 3182 7.5945071876049042e-03 -1
            -2 3139 -7.2221900336444378e-03 -3 -4 1782
            -2.0914323627948761e-02 -5 -6 1146 1.1604676246643066e+00 -7
            -8 3576 5.5357581004500389e-04 -9 -10 1632
            -4.7721806913614273e-03 -11 -12 2165 1.1335657536983490e-01
            -13 -14 349 1.2565327882766724e+00 -15 -16 3524
            7.0286571979522705e-02 -17 -18 3301 6.1172977089881897e-02
            -19 -20 778 2.6541117578744888e-02 -21 -22 3072
            1.0203249752521515e-01 -23 -24 2141 -2.0005358383059502e-02
            -25 -26 1885 -1.7724473029375076e-02 -27 -28 1368
            2.7584495022892952e-02 -29 -30 316 2.7124545886181295e-04</internalNodes>
          <leafValues>
            1. 1. -8.7350624799728394e-01 -4.5090055465698242e-01
            8.5466229915618896e-01 -1. 1. -9.6098029613494873e-01 1.
            -3.4965041279792786e-01 6.7013740539550781e-01
            -8.4164488315582275e-01 2.2419530153274536e-01
            -3.9636933803558350e-01 8.0826777219772339e-01
            -7.6776224374771118e-01 7.4777203798294067e-01
            3.8186207413673401e-01 -5.1455181837081909e-01
            2.8224828839302063e-01 -7.5157403945922852e-01
            -5.0731551647186279e-01 2.1965748071670532e-01
            2.7426928281784058e-01 -2.8273701667785645e-01
            -8.7813630700111389e-02 4.7766479849815369e-01
            7.6051652431488037e-01 -6.6115096211433411e-02
            -7.7616405487060547e-01 1.6384112834930420e-01</leafValues></_>
        <_>
          <internalNodes>
            1 2 1305 -4.8438282683491707e-03 3 4 2353
            1.0138252750039101e-02 5 6 1 6.3525023870170116e-03 7 8 1865
            1.2664900161325932e-02 9 10 871 -6.3988946378231049e-02 11
            12 2299 -1.3640003278851509e-02 13 14 3586
            5.3647413849830627e-02 15 16 770 -2.3259840905666351e-02 17
            18 3472 -1.3066557049751282e-01 19 20 610
            -1.7107311869040132e-03 21 22 1141 -5.3898740559816360e-02
            23 24 2098 -1.0382960736751556e-01 25 26 4046
            -1.8591485917568207e-02 27 28 3550 -3.8366327062249184e-03
            29 30 1065 -1.8689827620983124e-01 0 -1 2372
            -7.1519434452056885e-02 -2 -3 2135 -1.3952589593827724e-02
            -4 -5 133 -1.5291474759578705e-02 -6 -7 3337
            -1.0323545336723328e-01 -8 -9 15 -9.8276898264884949e-02 -10
            -11 390 -4.6300312876701355e-01 -12 -13 3666
            -2.9615382663905621e-03 -14 -15 1931 5.7642687112092972e-02
            -16 -17 4063 -4.8771556466817856e-03 -18 -19 3408
            -1.3558478653430939e-01 -20 -21 333 2.2861693054437637e-02
            -22 -23 3837 -5.5944323539733887e-03 -24 -25 2151
            6.9431674480438232e-01 -26 -27 4076 7.7906986698508263e-03
            -28 -29 194 -8.6677148938179016e-03 -30 -31 3783
            7.8429542481899261e-02</internalNodes>
          <leafValues>
            6.9837486743927002e-01 -3.7998142838478088e-01
            2.2002471983432770e-01 -4.6277311444282532e-01 -1.
            8.7239670753479004e-01 6.3357061147689819e-01
            -7.7164608240127563e-01 1. -1. -1. 9.1500043869018555e-01
            -9.2549502849578857e-01 6.4858090877532959e-01
            -8.2284665107727051e-01 7.4538755416870117e-01
            -6.6126668453216553e-01 7.1386653184890747e-01
            5.9187507629394531e-01 -2.9487448930740356e-01
            9.7720295190811157e-02 -4.7070711851119995e-01
            -1.8829187750816345e-01 3.8504177331924438e-01
            -6.7854702472686768e-01 4.9002817273139954e-01
            2.0488519966602325e-01 -5.0001776218414307e-01
            -8.3184170722961426e-01 8.0391263961791992e-01
            -8.4573531150817871e-01 7.0621764659881592e-01</leafValues></_></weakClassifiers></_>
    <!-- stage 5 -->
    <_>
      <maxWeakCount>7</maxWeakCount>
      <stageThreshold>-1.2800655364990234e+00</stageThreshold>
      <weakClassifiers>
        <_>
          <internalNodes>
            1 2 2454 2.5920450687408447e-01 3 4 920
            1.1957650184631348e+00 5 6 1148 3.2353186607360840e-01 7 8
            2979 1.1928126215934753e-01 9 10 475 -8.3146039396524429e-03
            11 12 2652 -1.1907858401536942e-01 13 14 2796
            2.7044251561164856e-02 15 16 2435 1.2319679260253906e+00 17
            18 2661 2.1351623535156250e-01 19 20 45
            -3.8081267848610878e-03 21 22 2602 -3.8796502351760864e-01
            23 24 3864 -9.1483462601900101e-03 25 26 2153
            1.1112637817859650e-01 27 28 1553 -3.3768749237060547e-01 29
            30 4021 1.3749429956078529e-02 0 -1 2923
            8.3198711276054382e-02 -2 -3 3133 3.0289378017187119e-02 -4
            -5 3025 1.8940120935440063e-01 -6 -7 186
            2.4852773174643517e-02 -8 -9 29 9.5732964575290680e-02 -10
            -11 3615 7.1835488080978394e-02 -12 -13 2001
            2.2641798853874207e-01 -14 -15 1737 1.7572730779647827e-02
            -16 -17 349 1.0857007503509521e+00 -18 -19 4034
            9.0818740427494049e-03 -20 -21 1424 -5.6576956994831562e-03
            -22 -23 739 -2.4517768993973732e-02 -24 -25 3932
            2.7608370780944824e-01 -26 -27 1281 -6.4936992712318897e-03
            -28 -29 4009 1.2750709429383278e-02 -30 -31 1928
            -1.0844757407903671e-01</internalNodes>
          <leafValues>
            -5.7115292549133301e-01 -9.3953490257263184e-02
            6.8589740991592407e-01 -8.9473682641983032e-01
            -2.8205129504203796e-01 6.2347185611724854e-01
            8.2826477289199829e-01 -1.7543859779834747e-02 -1. 1.
            6.1111110448837280e-01 -8.1818181276321411e-01 -1.
            6.6666668653488159e-01 8.7724548578262329e-01 -1.
            -7.5999999046325684e-01 5.5555558204650879e-01
            8.9891695976257324e-01 -5.2631579339504242e-02
            -6.4800000190734863e-01 -1.1077844351530075e-01
            9.3750000000000000e-02 8.4344422817230225e-01
            -4.5161288976669312e-01 1. 4.0000000596046448e-01
            9.0973871946334839e-01 6.8032789230346680e-01
            -5.1999998092651367e-01 1. -7.5000000000000000e-01</leafValues></_>
        <_>
          <internalNodes>
            1 2 1458 1.2678353786468506e+00 3 4 2810
            5.7189619541168213e-01 5 6 1309 -1.0657208040356636e-02 7 8
            2967 1.8967074155807495e-01 9 10 778 -1.6292549669742584e-02
            11 12 3082 2.3382619023323059e-02 13 14 183
            -1.3029148802161217e-02 15 16 793 1.2617938518524170e+00 17
            18 2030 -3.5490356385707855e-02 19 20 3084
            -1.2159240245819092e-01 21 22 1865 -2.0520355552434921e-02 0
            23 2430 -2.3965191841125488e-01 -1 -2 1
            8.3412807434797287e-03 24 25 3990 1.5271559357643127e-02 26
            27 2393 -1.5419555827975273e-02 -3 -4 515
            1.2327545881271362e+00 -5 -6 3897 4.6719193458557129e-02 -7
            -8 2681 9.1660216450691223e-02 -9 -10 626
            3.2674893736839294e-02 -11 -12 2213 -5.6445770896971226e-03
            -13 -14 1541 1.3283361494541168e-01 -15 -16 3564
            4.4899135828018188e-03 -17 -18 2724 -5.9871226549148560e-02
            -19 -20 885 -1.8357388675212860e-02 -21 -22 1468
            -3.1663972139358521e-01 -23 -24 1075 1.6044559478759766e+00
            -25 -26 1089 -8.9398592710494995e-02 -27 -28 4093
            -1.5052853152155876e-02</internalNodes>
          <leafValues>
            1. 1. -1. -1.6675128042697906e-01 5.6066852807998657e-01
            7.1945661306381226e-01 -6.3428670167922974e-01
            -4.5461764931678772e-01 5.8346027135848999e-01
            8.7875837087631226e-01 9.3932628631591797e-02
            -7.0078778266906738e-01 6.4287972450256348e-01
            -8.2616096735000610e-01 1. 4.8095902800559998e-01
            -7.9720091819763184e-01 -9.1749018430709839e-01
            8.6467313766479492e-01 1. -8.7288379669189453e-01
            -6.8657994270324707e-01 9.6903347969055176e-01
            -5.2893722057342529e-01 1. 8.7353438138961792e-01
            -6.6307014226913452e-01 -1.3573968410491943e-01
            9.0205127000808716e-01</leafValues></_>
        <_>
          <internalNodes>
            1 2 3574 5.8855451643466949e-03 3 4 3565
            -5.1226695068180561e-03 5 6 113 -2.3713300004601479e-02 7 8
            2538 -5.7573631405830383e-02 9 10 3836
            -2.7940701693296432e-03 11 12 3688 -1.1234386265277863e-01
            13 14 3247 1.3433516025543213e-01 15 16 405
            -5.9855721890926361e-02 17 18 2560 -2.4965789169073105e-02
            19 20 1732 -3.7990540266036987e-02 21 22 2586
            1.5626296401023865e-01 23 24 3945 2.4724349379539490e-02 25
            26 1427 -2.0991526544094086e-01 27 28 748
            -9.3651507049798965e-03 29 30 51 -9.8977442830801010e-03 0
            -1 1208 -6.6026657819747925e-02 -2 -3 3281
            -4.5867905020713806e-02 -4 -5 463 -8.0021366477012634e-02 -6
            -7 3349 -4.1061244904994965e-02 -8 -9 475
            -6.8065966479480267e-03 -10 -11 2700 2.7064640074968338e-02
            -12 -13 2536 -1.2287247925996780e-01 -14 -15 989
            2.1676700562238693e-02 -16 -17 3642 3.4390415530651808e-03
            -18 -19 750 1.5593734569847584e-02 -20 -21 3445
            -6.1548296362161636e-03 -22 -23 542 -1.2272517383098602e-01
            -24 -25 3024 -1.8423019349575043e-01 -26 -27 752
            -7.1095023304224014e-03 -28 -29 1060 -1.2193149328231812e-01
            -30 -31 957 1.8072996288537979e-02</internalNodes>
          <leafValues>
            8.5977387428283691e-01 -8.4255242347717285e-01
            -4.1786441206932068e-01 6.9468510150909424e-01
            6.0915422439575195e-01 -1.8281248211860657e-01
            -9.8438903689384460e-02 -5.4382133483886719e-01
            -4.0972688794136047e-01 4.0575239062309265e-01
            -3.9837297797203064e-01 1.3662448525428772e-01
            3.9434832334518433e-01 -8.8329553604125977e-02
            7.7321201562881470e-01 3.0937609076499939e-01 -1.
            7.4639970064163208e-01 -1. 1. -1. 6.6001659631729126e-01
            4.0412163734436035e-01 -8.3492845296859741e-01
            4.2343056201934814e-01 -7.6989471912384033e-01
            -4.6642163395881653e-01 3.4328971058130264e-02 1. -1.
            8.7415617704391479e-01 -1.</leafValues></_>
        <_>
          <internalNodes>
            1 2 613 1.0454686358571053e-02 3 4 613
            -7.8393034636974335e-03 5 6 182 -1.2674305588006973e-02 7 8
            2796 1.2299731373786926e-02 9 10 543 8.7359800934791565e-02
            11 12 1672 -9.9213540554046631e-02 13 14 397
            2.8289849869906902e-03 15 16 3433 -5.9601217508316040e-02 17
            18 598 -7.1829289197921753e-02 19 20 2126
            -1.3170015811920166e-01 21 22 609 -6.2672654166817665e-03 0
            -1 188 -1.2117224745452404e-02 23 24 542
            -1.0824785381555557e-01 25 26 3033 1.2628348171710968e-01 27
            28 2650 9.9587380886077881e-02 -2 -3 2303
            -1.6378588974475861e-02 -4 -5 3071 -2.6134159415960312e-02
            -6 -7 586 -6.7322120070457458e-02 -8 -9 854
            1.6172453761100769e-01 -10 -11 2080 6.3742503523826599e-02
            -12 -13 1774 4.2320512235164642e-02 -14 -15 548
            -5.3159260749816895e-01 -16 -17 659 -2.8471808764152229e-04
            -18 -19 2286 3.3535896800458431e-03 -20 -21 2049
            -4.8510134220123291e-02 -22 -23 3740 3.3715628087520599e-02
            -24 -25 1801 -1.8901117146015167e-02 -26 -27 2659
            1.0491758584976196e-01 -28 -29 1279 -1.2634515296667814e-03</internalNodes>
          <leafValues>
            1. -1. -7.2765427827835083e-01 4.7659662365913391e-01
            1.8476466834545135e-01 -2.7113914489746094e-01 -1.
            8.4704917669296265e-01 -5.9583216905593872e-01
            4.1246646642684937e-01 1.5803799033164978e-01
            7.3702198266983032e-01 -2.9109618067741394e-01
            3.4037059545516968e-01 -8.8117563724517822e-01
            2.1841287612915039e-01 7.6633191108703613e-01
            4.0711767971515656e-02 1. -1. -1.6253992915153503e-01
            -9.0410143136978149e-01 -3.9072293043136597e-01
            1.1314564943313599e-01 -6.6972029209136963e-01
            7.3678064346313477e-01 -6.7085242271423340e-01
            3.4044820070266724e-01 -7.8474658727645874e-01
            8.0824351310729980e-01</leafValues></_>
        <_>
          <internalNodes>
            1 2 3835 -1.1806634254753590e-02 3 4 3423
            1.6053140163421631e-01 5 6 2783 -1.7773134633898735e-02 7 8
            3016 8.8868528604507446e-02 9 10 3202 1.7229134682565928e-03
            11 12 3728 -7.7527053654193878e-02 13 14 2288
            2.5803081691265106e-02 15 16 1877 -1.8371078372001648e-01 0
            17 2132 -9.3712722882628441e-03 -1 18 348
            -2.3646302521228790e-02 19 -2 3488 2.7945588808506727e-03 20
            21 4002 2.5091852992773056e-02 22 23 1160
            -2.5742655992507935e-01 24 25 2505 -5.3261846303939819e-02
            26 27 2581 -5.5443249642848969e-02 -3 -4 3877
            3.0940161086618900e-03 -5 -6 3290 1.1139286309480667e-01 -7
            -8 8 -9.9639128893613815e-03 -9 -10 58
            -5.4704222828149796e-02 -11 -12 129 1.8335482478141785e-01
            -13 -14 1919 -4.9429391510784626e-03 -15 -16 4
            7.9032015055418015e-03 -17 -18 1378 5.2320712804794312e-01
            -19 -20 1452 8.3249568939208984e-02 -21 -22 2326
            -2.7584522962570190e-02 -23 -24 2502 6.9143250584602356e-02
            -25 -26 2283 -3.9723478257656097e-03 -27 -28 1305
            3.5781711339950562e-03</internalNodes>
          <leafValues>
            -1. -1. 1. 9.0820538997650146e-01 -1.
            -6.3516592979431152e-01 3.2651859521865845e-01 -1.
            9.8303186893463135e-01 -1. 1. -1. 1. -3.8079369068145752e-01
            5.1791507005691528e-01 -1. 1. -6.8633764982223511e-01
            7.7714121341705322e-01 -8.8909789919853210e-02
            -7.4183672666549683e-01 -2.5030052661895752e-01
            6.3004851341247559e-01 -1.6542416065931320e-02
            4.0746992826461792e-01 -6.4805096387863159e-01
            5.3486692905426025e-01 -1.2252841144800186e-01
            -6.5800523757934570e-01</leafValues></_>
        <_>
          <internalNodes>
            1 2 1 -2.2993402089923620e-03 3 4 734
            -2.5908411480486393e-03 5 6 1314 -5.3558987565338612e-03 7 8
            3661 -7.6631873846054077e-02 9 10 1091
            5.1274448633193970e-02 11 12 748 5.5628092959523201e-03 13
            14 496 -1.0422112420201302e-02 0 15 1330
            -1.7636168748140335e-02 16 17 1660 -1.2847366929054260e-01
            18 19 1591 -1.7649611830711365e-01 20 21 1105
            9.7796954214572906e-03 22 23 2086 4.7965120524168015e-02 24
            25 3063 -9.0300515294075012e-02 26 27 2960
            -5.3053110837936401e-02 28 29 3899 1.1636510491371155e-02 -1
            -2 2806 -5.0386883318424225e-02 -3 -4 1025
            2.0629525184631348e-01 -5 -6 3727 2.3263621330261230e-01 -7
            -8 2206 1.0301622562110424e-02 -9 -10 2496
            -5.8924265205860138e-02 -11 -12 4098 1.0231354087591171e-01
            -13 -14 2420 5.4136631079018116e-03 -15 -16 389
            4.3032237887382507e-01 -17 -18 622 -5.7532088831067085e-03
            -19 -20 117 2.7292758226394653e-02 -21 -22 1977
            1.7342144250869751e-01 -23 -24 225 3.9358454942703247e-01
            -25 -26 2085 -4.1156455874443054e-02 -27 -28 513
            -5.0802778452634811e-02 -29 -30 2339 6.3216263055801392e-01</internalNodes>
          <leafValues>
            -1. -9.5524686574935913e-01 7.2702431678771973e-01
            -5.2355086803436279e-01 9.0628743171691895e-01
            -8.1891322135925293e-01 7.1716487407684326e-01
            5.7787799835205078e-01 -7.2472161054611206e-01
            1.1542455106973648e-01 -3.9463463425636292e-01
            5.2458232641220093e-01 -8.6270415782928467e-01
            -6.8094259500503540e-01 9.0414232015609741e-01
            -8.9548543095588684e-02 -6.8561655282974243e-01
            -3.4212261438369751e-01 5.4455649852752686e-01 1. -1.
            -7.0719671249389648e-01 7.7941972017288208e-01
            5.2952402830123901e-01 -6.3479185104370117e-01
            2.8705102205276489e-01 -4.6855172514915466e-01
            -5.3754910826683044e-02 3.9062336087226868e-01
            -2.1068358421325684e-01 7.1536904573440552e-01</leafValues></_>
        <_>
          <internalNodes>
            1 2 1350 8.5000169277191162e-01 3 4 468
            6.8016827106475830e-02 5 6 2741 -2.2655831649899483e-02 7 8
            2167 1.1499607563018799e-01 9 10 434 1.2235696427524090e-02
            11 12 2158 -2.5346931070089340e-02 13 0 1031
            8.4573030471801758e-02 14 15 1029 7.5322419404983521e-02 16
            17 2697 1.1171782761812210e-01 18 19 1340
            -9.5091164112091064e-03 20 21 1858 2.0473482087254524e-02 -1
            -2 22 -1.6310408711433411e-01 -3 22 646
            -2.7782069519162178e-02 23 -4 178 1.8425147980451584e-02 -5
            -6 1557 -5.2203934639692307e-02 -7 -8 2355
            -1.4137959107756615e-02 -9 -10 3869 -1.7778910696506500e-02
            -11 -12 3674 -1.5668243169784546e-02 -13 -14 3694
            1.3490030542016029e-02 -15 -16 1107 1.2619052082300186e-02
            -17 -18 1457 2.3319074511528015e-01 -19 -20 3093
            -5.7767098769545555e-03 -21 -22 2 -1.0105644352734089e-02
            -23 -24 1361 7.5088582932949066e-02</internalNodes>
          <leafValues>
            -1. -1. 1. 8.4766072034835815e-01 -8.7429177761077881e-01
            1.7644250392913818e-01 -4.0493938326835632e-01
            2.9090940952301025e-01 -3.0396503210067749e-01
            -3.3663731813430786e-01 2.0045304298400879e-01
            -4.2945653200149536e-01 7.7415084838867188e-01
            6.2331014871597290e-01 -4.1340869665145874e-01
            6.6903996467590332e-01 5.2042290568351746e-02
            -7.3375999927520752e-02 5.3571689128875732e-01
            9.6001969650387764e-03 -5.3532600402832031e-01 1. -1. -1.
            9.1795045137405396e-01</leafValues></_></weakClassifiers></_>
    <!-- stage 6 -->
    <_>
      <maxWeakCount>8</maxWeakCount>
      <stageThreshold>-1.2414906024932861e+00</stageThreshold>
      <weakClassifiers>
        <_>
          <internalNodes>
            1 2 921 1.3377518653869629e+00 3 4 2883
            1.1574465036392212e-01 5 6 921 1.8215436935424805e+00 7 8
            3404 1.0000827908515930e-01 9 10 1821
            -1.2230804190039635e-02 11 12 2284 -1.2108968570828438e-02
            13 14 3882 -1.5340933576226234e-02 15 16 3287
            1.1653748154640198e-01 17 18 739 1.9212145358324051e-02 19
            20 2116 9.5467075705528259e-02 21 22 3920
            -1.3857193291187286e-02 23 24 2533 2.3031049966812134e-01 25
            26 4055 2.3711558431386948e-02 27 28 1848
            -2.4763772264122963e-02 29 0 288 1.3495347499847412e+00 -1
            -2 900 9.0380287170410156e-01 -3 -4 2918
            -2.9883277416229248e-01 -5 -6 672 -1.2283239513635635e-02 -7
            -8 3958 -2.0497432351112366e-01 -9 -10 1129
            2.1065732836723328e-01 -11 -12 0 1.3707295060157776e-02 -13
            -14 3365 1.8265132606029510e-01 -15 -16 1341
            3.8089185953140259e-02 -17 -18 3990 -5.5585172958672047e-03
            -19 -20 0 -1.6494551673531532e-02 -21 -22 2781
            -1.0022219270467758e-02 -23 -24 67 7.0090159773826599e-02
            -25 -26 3078 -2.2536396980285645e-01 -27 -28 1056
            -7.9237986356019974e-03 -29 -30 2393 -2.0301409065723419e-02</internalNodes>
          <leafValues>
            -1. -5.6041061878204346e-01 4.6961325407028198e-01
            7.5000000000000000e-01 -3.2520323991775513e-02
            -5.2941179275512695e-01 4.4549125432968140e-01
            3.4463277459144592e-01 -4.0727901458740234e-01
            -7.4857145547866821e-01 8.1818181276321411e-01 1. -1.
            -2.0346319675445557e-01 5.3684210777282715e-01
            6.2900763750076294e-01 -1.4117647707462311e-01
            5.7894736528396606e-01 -6.2589925527572632e-01 -1. 1.
            -9.4117648899555206e-02 6.6491043567657471e-01
            2.3287671804428101e-01 -7.3195874691009521e-01 1. -1.
            -5.7142859697341919e-01 8.1818181276321411e-01
            -3.6842104792594910e-01 9.2286312580108643e-01</leafValues></_>
        <_>
          <internalNodes>
            1 2 1075 1.2269808053970337e+00 3 4 1878
            1.3255078792572021e+00 5 6 4069 -3.3180683851242065e-02 7 8
            979 8.8906067609786987e-01 9 10 431 -1.4140271581709385e-02
            11 12 3941 1.1872179806232452e-01 13 14 951
            -1.4511317014694214e-02 15 16 3033 -5.9916131198406219e-02
            17 18 1830 -9.5787737518548965e-03 19 20 3873
            1.3431861996650696e-02 21 22 3164 -5.6076489388942719e-02 23
            24 1762 -4.9359917640686035e-02 0 -1 27
            -2.9010828584432602e-02 25 26 1780 -1.4155259355902672e-02
            27 28 3967 -2.6270642876625061e-02 -2 -3 2299
            -1.5416047535836697e-02 -4 -5 2384 -8.4228701889514923e-02
            -6 -7 1781 -4.2483658762648702e-04 -8 -9 3711
            1.3943563215434551e-02 -10 -11 3565 -1.5250324271619320e-02
            -12 -13 216 -2.6708656549453735e-01 -14 -15 47
            -8.2497466355562210e-03 -16 -17 2768 -1.6697015613317490e-02
            -18 -19 3 1.1825448833405972e-02 -20 -21 1475
            -1.8900424242019653e-01 -22 -23 2485 -9.9432785063982010e-03
            -24 -25 0 6.5978961065411568e-03 -26 -27 1638
            1.5333348885178566e-02 -28 -29 11 -2.5832619518041611e-02</internalNodes>
          <leafValues>
            -1. 1. -3.0406323075294495e-01 2.1898809075355530e-01
            1.5111248195171356e-01 -3.2294863462448120e-01
            -7.7955448627471924e-01 3.2275030016899109e-01
            7.2225230932235718e-01 -2.1674419939517975e-01 -1.
            7.8838026523590088e-01 1. -8.6154055595397949e-01
            -8.7139666080474854e-01 6.9263106584548950e-01
            -3.5114473104476929e-01 8.1524509191513062e-01 1. -1. 1.
            -7.8534930944442749e-01 1. -8.8252931833267212e-01 1. -1.
            3.6050859093666077e-01 -9.3554145097732544e-01
            1.1218049377202988e-01 8.5518050193786621e-01</leafValues></_>
        <_>
          <internalNodes>
            1 2 4106 -9.5947962254285812e-03 3 4 3360
            -9.9938705563545227e-02 5 6 2172 2.2898291051387787e-01 7 8
            1693 4.5094126835465431e-03 9 10 2892
            -7.5055524706840515e-02 11 12 2207 -3.3222507685422897e-02
            13 14 568 -1.7292216420173645e-02 15 16 3950
            -1.7438735812902451e-02 0 -1 2646 1.4071838557720184e-01 17
            18 2326 -1.5308262780308723e-02 19 20 2967
            2.0703223347663879e-01 21 22 4100 -1.3510128483176231e-02 23
            24 1252 -4.2345181107521057e-02 25 26 3109
            -4.1398599743843079e-02 27 28 351 -2.1202195435762405e-02 -2
            -3 2238 -2.4029856920242310e-01 -4 -5 1971
            -3.4000035375356674e-03 -6 -7 442 -2.3462063074111938e-01 -8
            -9 3629 3.4066911786794662e-02 -10 -11 3305
            2.1505156159400940e-01 -12 -13 993 -4.6056292951107025e-02
            -14 -15 2645 3.9226338267326355e-02 -16 -17 475
            -8.8341198861598969e-03 -18 -19 4028 -9.3736452981829643e-03
            -20 -21 2162 -3.3717956393957138e-02 -22 -23 865
            -4.8074712976813316e-03 -24 -25 1724 1.9047965109348297e-01
            -26 -27 3332 -3.1425960361957550e-02 -28 -29 608
            -9.2205218970775604e-03</internalNodes>
          <leafValues>
            -1. 1. -1. 8.4901899099349976e-01 8.6583298444747925e-01
            -8.6024868488311768e-01 1. -8.4499770402908325e-01
            4.6392816305160522e-01 -9.4733172655105591e-01
            -6.7099267244338989e-01 9.9466785788536072e-02 -1.
            9.6206402778625488e-01 -6.1112707853317261e-01
            6.2494736909866333e-01 -2.9447126388549805e-01
            3.0980315804481506e-01 -6.9333851337432861e-01
            2.6452043652534485e-01 1.4376516640186310e-01
            -3.5693454742431641e-01 -6.6364753246307373e-01
            9.4576060771942139e-01 -7.3667830228805542e-01
            5.7644146680831909e-01 6.7005378007888794e-01
            -4.1447630524635315e-01 -2.1611736714839935e-01
            6.1524200439453125e-01</leafValues></_>
        <_>
          <internalNodes>
            1 2 4085 -1.0899793356657028e-02 3 4 1941
            -4.7934126108884811e-02 5 6 1841 -1.6716003417968750e-02 7 8
            731 -5.5952467024326324e-02 9 10 1861 9.1191753745079041e-02
            11 12 2514 -1.1688108742237091e-01 13 14 4033
            -1.4242434874176979e-02 15 0 2413 7.1749120950698853e-02 16
            17 4033 9.9700167775154114e-03 18 19 1882
            1.6039493680000305e-01 20 21 2474 -4.1576814651489258e-01 22
            -1 1699 1.1542312800884247e-02 23 24 1962
            5.3022630512714386e-02 25 26 3306 8.8574379682540894e-02 27
            28 2392 -1.5917474403977394e-02 -2 -3 2628
            5.1578514277935028e-02 -4 -5 741 2.7986031025648117e-02 -6
            -7 3732 1.7979243770241737e-02 -8 -9 3680
            4.8984378576278687e-02 -10 -11 3487 -1.3080372475087643e-02
            -12 -13 2222 -1.3231651857495308e-02 -14 -15 762
            -2.7251783758401871e-02 -16 -17 709 -1.5299756079912186e-02
            -18 -19 2119 -2.7821341529488564e-02 -20 -21 809
            -1.4984697103500366e-01 -22 -23 1458 1.4145636558532715e+00
            -24 -25 3181 5.4732784628868103e-03 -26 -27 327
            1.7379659414291382e-01 -28 -29 2957 -4.6112813055515289e-02</internalNodes>
          <leafValues>
            1. -1. -9.2544722557067871e-01 1. 4.7061398625373840e-01
            -4.7413218021392822e-01 -1. 7.0604616403579712e-01
            -7.4684548377990723e-01 1.2882752716541290e-01
            4.2026939988136292e-01 -6.1610931158065796e-01 -1.
            9.4440823793411255e-01 -7.9889005422592163e-01
            -2.6612566784024239e-02 -1. 8.9143311977386475e-01
            -9.2502839863300323e-02 -6.2640285491943359e-01
            5.5813354253768921e-01 -3.4122204780578613e-01
            -6.2935650348663330e-01 7.2463315725326538e-01
            8.1092244386672974e-01 -7.5558710098266602e-01
            -5.4852575063705444e-01 5.5178928375244141e-01
            3.9368322491645813e-01 8.2337684929370880e-02</leafValues></_>
        <_>
          <internalNodes>
            1 2 2351 2.0076712965965271e-01 3 4 3323
            -7.5262188911437988e-02 5 6 2508 4.2657062411308289e-02 7 8
            4036 -8.7965773418545723e-03 9 10 1350
            7.2122478485107422e-01 11 12 4056 -1.3645592331886292e-01 13
            14 3610 8.3008129149675369e-03 15 16 2937
            -3.1271927058696747e-02 17 18 3414 9.6805654466152191e-03 19
            20 773 7.0497080683708191e-02 21 22 2226
            -1.2351707555353642e-02 23 24 2555 1.4897800981998444e-02 25
            26 1465 -1.0142163932323456e-01 27 28 2459
            -2.8822198510169983e-02 29 30 4046 -5.7801626622676849e-02 0
            -1 2510 3.2999619841575623e-02 -2 -3 228
            -4.1626341640949249e-02 -4 -5 2299 -2.1576356142759323e-02
            -6 -7 786 1.9152801483869553e-02 -8 -9 3608
            -3.7034463137388229e-02 -10 -11 3057 1.1755900923162699e-03
            -12 -13 2668 -1.2719497084617615e-01 -14 -15 1789
            6.0027174651622772e-02 -16 -17 3685 -2.5503363460302353e-02
            -18 -19 1 -3.1858630478382111e-02 -20 -21 3345
            -4.0153950452804565e-02 -22 -23 7 -6.9377809762954712e-02
            -24 -25 4075 1.0442674160003662e-02 -26 -27 2428
            -5.0057388842105865e-02 -28 -29 704 -9.0965628623962402e-03
            -30 -31 2284 -1.3021770864725113e-02</internalNodes>
          <leafValues>
            -2.8215557336807251e-01 5.2312779426574707e-01 1.
            -7.6188427209854126e-01 -3.1208348274230957e-01
            4.7045946121215820e-01 -5.2960318326950073e-01
            6.6181820631027222e-01 -8.6264148354530334e-02
            -3.8305911421775818e-01 -6.3611045479774475e-02
            4.5057296752929688e-01 8.1540918350219727e-01
            -8.1131535768508911e-01 5.7445251941680908e-01
            -5.0800824165344238e-01 -9.6243238449096680e-01
            7.1461337804794312e-01 -1. 9.1786003112792969e-01
            5.4495429992675781e-01 -8.1831926107406616e-01
            -6.3909846544265747e-01 6.9524049758911133e-01
            4.3765130639076233e-01 -7.7037733793258667e-01
            2.1678942441940308e-01 -6.3458794355392456e-01 1.
            -8.5111051797866821e-01 -6.0598683357238770e-01
            3.1931206583976746e-01</leafValues></_>
        <_>
          <internalNodes>
            1 2 54 -1.6740828752517700e-02 3 4 964
            2.1056507248431444e-03 5 6 674 -4.2205005884170532e-02 7 8
            1898 9.0033179149031639e-03 9 10 1830 6.7758755758404732e-03
            11 12 2667 -1.1787978932261467e-02 13 14 3560
            -1.3698423281311989e-02 15 16 2939 -1.1571080982685089e-01
            17 18 1419 -5.2055921405553818e-03 19 20 12
            -5.8020576834678650e-03 21 22 3129 4.3182022869586945e-02 23
            24 3223 -3.0141329392790794e-02 25 26 3715
            1.1182796955108643e-01 27 28 1752 1.0945235192775726e-01 29
            30 1869 -2.0904697477817535e-02 0 -1 2862
            6.4951679669320583e-03 -2 -3 2647 -1.4801862835884094e-01 -4
            -5 106 2.8938221931457520e-01 -6 -7 3148
            1.1262735351920128e-02 -8 -9 2776 2.5071860291063786e-03 -10
            -11 397 6.9618653506040573e-03 -12 -13 1153
            2.3181754350662231e-01 -14 -15 72 -1.3975625857710838e-02
            -16 -17 4028 2.8175795450806618e-03 -18 -19 2839
            1.4120216667652130e-01 -20 -21 3500 4.5139368623495102e-02
            -22 -23 882 1.7544522881507874e-02 -24 -25 3152
            1.2826977297663689e-02 -26 -27 3596 3.7223793566226959e-02
            -28 -29 2838 1.0961528122425079e-01 -30 -31 943
            -2.6054967194795609e-02</internalNodes>
          <leafValues>
            8.7695759534835815e-01 -1. 6.5557724237442017e-01
            -6.4973676204681396e-01 -9.1424757242202759e-01
            7.9675799608230591e-01 2.3516541719436646e-01
            -7.2551715373992920e-01 7.0391036570072174e-02
            -7.5507396459579468e-01 4.2782914638519287e-01
            -6.0017746686935425e-01 -9.0667486190795898e-01 1. -1. 1.
            6.6927868127822876e-01 -8.7512809038162231e-01
            7.7566127292811871e-03 -9.3361854553222656e-01
            -5.9087109565734863e-01 -5.0533015280961990e-02 1. -1.
            -5.7388246059417725e-01 2.2368928790092468e-01
            9.6633899211883545e-01 -8.5188949108123779e-01
            -2.2924217581748962e-01 4.7600355744361877e-01
            3.4555768966674805e-01 1.0291895270347595e-01</leafValues></_>
        <_>
          <internalNodes>
            1 2 417 -1.0465770959854126e-02 3 4 837
            8.2322195172309875e-02 5 6 884 -5.4539486765861511e-02 7 8
            3688 -1.2850236892700195e-01 9 10 4062
            2.0925782620906830e-02 11 12 2204 -4.9176409840583801e-02 13
            14 2284 -2.7766525745391846e-03 15 16 2649
            -2.8809921815991402e-02 17 18 3759 -8.1301078200340271e-02
            19 20 18 -1.3609703164547682e-03 0 -1 1884
            1.8939292430877686e-01 21 22 3927 -1.5137558802962303e-02 23
            24 1431 2.1377542987465858e-02 25 26 2978
            -7.0792466402053833e-02 27 28 2582 1.0339796543121338e+00 -2
            -3 2625 -8.4800139069557190e-02 -4 -5 2359
            3.2408185303211212e-02 -6 -7 2841 -1.2944558262825012e-01 -8
            -9 2614 -5.2884511649608612e-02 -10 -11 2088
            9.5437048003077507e-03 -12 -13 2059 -1.9837227463722229e-01
            -14 -15 2032 -9.2286486178636551e-03 -16 -17 1995
            -1.7058977484703064e-01 -18 -19 1768 -7.2061643004417419e-02
            -20 -21 3092 -1.7329648137092590e-02 -22 -23 3198
            -6.0322262346744537e-02 -24 -25 1739 -5.0507728010416031e-03
            -26 -27 75 1.2786343693733215e-01 -28 -29 3263
            -1.5929840505123138e-02</internalNodes>
          <leafValues>
            -1. 1. 7.9346257448196411e-01 -3.9039885997772217e-01
            9.0894973278045654e-01 -1. 6.3138449192047119e-01
            -2.6609084010124207e-01 -8.4212869405746460e-03
            -5.3356766700744629e-01 -7.0141738653182983e-01
            8.6519366502761841e-01 -1. 9.1698634624481201e-01
            -8.3112090826034546e-01 8.2286077737808228e-01
            -6.2144684791564941e-01 8.3568531274795532e-01
            6.2801223993301392e-01 9.6829131245613098e-02
            7.4991959333419800e-01 -3.4675100445747375e-01
            -6.3719928264617920e-01 3.7194558978080750e-01
            -5.8794456720352173e-01 -1.7736169695854187e-01
            -6.7285910248756409e-02 2.0507408678531647e-01
            -5.1394075155258179e-01 8.8728308677673340e-01</leafValues></_>
        <_>
          <internalNodes>
            1 2 4049 -1.4849553816020489e-02 3 4 2821
            5.4887525737285614e-02 5 6 1481 -2.9619574546813965e-02 7 8
            2051 -6.7131355404853821e-02 9 10 3000
            6.6083312034606934e-02 11 12 176 1.0160321369767189e-02 13
            14 2119 -6.9721207022666931e-02 15 16 320
            2.1981857717037201e-02 17 18 783 -1.2063413858413696e-01 19
            0 795 3.3677004277706146e-02 -1 -2 3225
            -1.4487591385841370e-01 20 21 2109 2.2080793976783752e-02 22
            23 1422 -2.5263600051403046e-02 24 25 1084
            -1.2546730041503906e-01 26 27 2665 1.5240530483424664e-02 -3
            -4 1328 -1.5332054346799850e-02 -5 -6 2011
            -4.1600126773118973e-02 -7 -8 275 2.2769573330879211e-01 -9
            -10 2847 3.2158270478248596e-01 -11 -12 3876
            -3.7762813270092010e-02 -13 -14 3554 2.5540124624967575e-02
            -15 -16 845 5.5936264991760254e-01 -17 -18 2500
            1.3651961088180542e-01 -19 -20 1647 -1.0852435603737831e-02
            -21 -22 3467 6.5975738689303398e-03 -23 -24 4039
            -3.5148821771144867e-02 -25 -26 940 6.1965025961399078e-02
            -27 -28 1489 7.8271520137786865e-01</internalNodes>
          <leafValues>
            -1. 1. -1. -9.3382263183593750e-01 7.1990644931793213e-01 1.
            -9.8030626773834229e-01 -1. 1. -8.0941486358642578e-01 1.
            -1. 8.5952377319335938e-01 7.9554930329322815e-02
            -8.6347413063049316e-01 4.8063835501670837e-01
            -4.6050578355789185e-01 -8.5198032855987549e-01 1.
            -6.5058106184005737e-01 8.8256192207336426e-01
            5.2766227722167969e-01 -5.6983369588851929e-01
            -5.6568044424057007e-01 4.9989232420921326e-01
            -2.6919606328010559e-01 1.8616674840450287e-01
            1.0393725335597992e-01 -5.2200222015380859e-01</leafValues></_></weakClassifiers></_>
    <!-- stage 7 -->
    <_>
      <maxWeakCount>9</maxWeakCount>
      <stageThreshold>-1.1582762002944946e+00</stageThreshold>
      <weakClassifiers>
        <_>
          <internalNodes>
            1 2 921 1.5330688953399658e+00 3 4 920
            1.1970106363296509e+00 5 6 2410 5.8237993717193604e-01 7 8
            2059 1.5967279672622681e-01 9 10 4064 7.8201005235314369e-03
            11 12 2787 -6.6217142157256603e-03 13 14 623
            -2.5824829936027527e-02 15 16 793 1.4374914169311523e+00 17
            18 3419 1.3978600502014160e-01 19 20 4013
            -1.7484581097960472e-02 21 22 2623 -7.4453175067901611e-02
            23 24 1670 4.2974818497896194e-02 25 26 2799
            1.3870300725102425e-02 27 28 3070 9.6039295196533203e-02 29
            30 4065 -1.3425137847661972e-02 0 -1 2345
            1.4928753376007080e+00 -2 -3 3801 -2.8148494660854340e-02 -4
            -5 1132 -9.2000007629394531e-02 -6 -7 333
            -6.6081069409847260e-02 -8 -9 294 -7.0396368391811848e-03
            -10 -11 207 -2.1619148552417755e-02 -12 -13 2
            -1.0236606001853943e-02 -14 -15 1878 1.2957637310028076e+00
            -16 -17 2620 2.3257117718458176e-02 -18 -19 2180
            5.1553741097450256e-02 -20 -21 1311 -4.3661287054419518e-03
            -22 -23 3703 -3.2366774976253510e-02 -24 -25 3696
            4.0728664398193359e-01 -26 -27 927 4.6862262487411499e-01
            -28 -29 496 -6.7786602303385735e-03 -30 -31 231
            -2.9956400394439697e-01</internalNodes>
          <leafValues>
            -3.6587473750114441e-01 5.2941179275512695e-01
            -4.7058823704719543e-01 6.5665233135223389e-01
            4.3833017349243164e-01 -1.8463073670864105e-01
            -6.4039409160614014e-02 6.8496417999267578e-01
            -9.0476191043853760e-01 1.8840579688549042e-01
            -3.1428572535514832e-01 7.6019185781478882e-01 -1. 1.
            -8.5185188055038452e-01 1.4285714924335480e-01
            1.7948718369007111e-01 -8.1818181276321411e-01
            -3.3333334326744080e-01 1. -3.3557046204805374e-02
            6.6382646560668945e-01 6.9230771064758301e-01
            -4.3511450290679932e-01 -9.4736844301223755e-01
            4.6666666865348816e-01 -7.7777779102325439e-01
            9.3750000000000000e-01 -6.3636362552642822e-01
            4.7499999403953552e-01 -4.1666665673255920e-01
            9.0330791473388672e-01</leafValues></_>
        <_>
          <internalNodes>
            1 2 997 1.3336935043334961e+00 3 4 1146
            1.3215808868408203e+00 5 6 1309 -1.2340115383267403e-02 7 8
            1821 -6.0731470584869385e-03 9 10 29 -5.2331395447254181e-02
            11 12 601 -1.1329822242259979e-01 13 14 1841
            1.4371348544955254e-02 15 16 2705 -2.2870482876896858e-02 17
            18 1824 -2.1168071776628494e-02 0 19 2486
            -8.7553318589925766e-03 20 21 3845 -2.5994393974542618e-02
            -1 -2 1820 2.9775605071336031e-03 22 23 2410
            7.9070460796356201e-01 24 25 2399 4.2220301926136017e-02 26
            27 3845 -9.7176693379878998e-03 -3 -4 568
            -1.8427524715662003e-02 -5 -6 1226 1.7026393115520477e-01 -7
            -8 4034 1.0755700990557671e-02 -9 -10 2288
            -1.1179741472005844e-02 -11 -12 1953 1.0747112333774567e-02
            -13 -14 2600 -2.7997267246246338e-01 -15 -16 2313
            1.4209313318133354e-02 -17 -18 801 -2.6319026947021484e-01
            -19 -20 636 -1.4333470165729523e-01 -21 -22 1307
            1.1834170669317245e-02 -23 -24 803 3.4006410837173462e-01
            -25 -26 3581 1.3028281927108765e-01 -27 -28 294
            -6.5297605469822884e-03</internalNodes>
          <leafValues>
            -1. 1. -1. -9.3780988454818726e-01 3.3298455178737640e-02
            -4.8485496640205383e-01 8.1083446741104126e-01
            -2.4041177332401276e-01 -7.7066677808761597e-01
            -1.2852749228477478e-01 2.2745807468891144e-01
            4.3968069553375244e-01 -8.0392891168594360e-01 1.
            -8.4339565038681030e-01 8.0909198522567749e-01
            3.7061121314764023e-02 1. -8.3967763185501099e-01 -1. 1.
            8.5001391172409058e-01 -8.5109390318393707e-02
            -9.1386640071868896e-01 1. -1. 1. -8.3688771724700928e-01
            6.8243724107742310e-01</leafValues></_>
        <_>
          <internalNodes>
            1 2 4094 -1.0996552184224129e-02 3 4 1596
            1.0538103580474854e+00 5 6 4089 2.1025031805038452e-02 7 8
            2641 4.1325323283672333e-02 0 9 1803 -1.0666158050298691e-02
            10 11 3957 -2.6241954416036606e-02 12 13 2630
            -3.8010526448488235e-02 14 15 3407 5.2920792251825333e-02 16
            17 1187 9.0818777680397034e-03 -1 -2 47
            -5.7668060064315796e-02 18 19 1137 -7.8671216964721680e-02
            20 21 4060 3.7443861365318298e-02 22 23 2304
            -6.3141221180558205e-03 24 25 4011 -3.2046418637037277e-02
            -3 -4 3532 1.1535288393497467e-01 -5 -6 3597
            -5.6306697428226471e-02 -7 -8 32 -2.1228604018688202e-02 -9
            -10 593 2.8443050384521484e-01 -11 -12 771
            -1.2100621126592159e-02 -13 -14 2893 -3.4261863678693771e-02
            -15 -16 1830 7.9225162044167519e-03 -17 -18 3971
            -3.2955594360828400e-02 -19 -20 1179 -1.0416198521852493e-02
            -21 -22 1368 3.8770593702793121e-02 -23 -24 781
            -1.2523325160145760e-02 -25 -26 3395 1.8876988440752029e-02</internalNodes>
          <leafValues>
            -1. -1. 1. -6.2857818603515625e-01 -1.3617151975631714e-01
            -6.9083124399185181e-01 2.1883286535739899e-01
            -4.4865551590919495e-01 4.2483773827552795e-01 -1. 1.
            -3.6532583832740784e-01 4.0785634517669678e-01
            1.1377460323274136e-02 -4.8565977811813354e-01
            3.2531771063804626e-01 -1.4821554720401764e-01
            4.8218843340873718e-01 -2.5699925422668457e-01
            1.4135672152042389e-01 -8.3430635929107666e-01
            5.5657851696014404e-01 -6.6497302055358887e-01
            -8.1629294157028198e-01 2.1414664387702942e-01
            -2.0724165439605713e-01 -5.8600467443466187e-01</leafValues></_>
        <_>
          <internalNodes>
            1 2 708 -7.7648190781474113e-03 3 4 9
            -9.1196764260530472e-03 5 6 84 -1.9753806293010712e-02 7 0
            577 3.1114590167999268e-01 8 9 294 1.0059653781354427e-02 10
            11 2997 5.1666098833084106e-01 12 13 84
            1.6446946188807487e-02 14 -1 2194 1.5000799298286438e-01 15
            16 1293 1.9930504262447357e-02 -2 17 2898
            -9.6525922417640686e-02 18 19 500 1.0420942679047585e-02 20
            21 725 1.0144379921257496e-02 22 23 63
            5.5454529821872711e-02 24 25 3067 4.8577450215816498e-02 -3
            -4 2209 1.3342919945716858e-01 -5 -6 1691
            1.1383759789168835e-02 -7 -8 3175 -6.8312622606754303e-02 -9
            -10 2577 4.9146127700805664e-01 -11 -12 344
            1.7667476087808609e-02 -13 -14 3448 -8.3330973982810974e-02
            -15 -16 1822 -1.5792766585946083e-02 -17 -18 1573
            7.3143205372616649e-04 -19 -20 1174 1.4004928991198540e-02
            -21 -22 2626 7.0844590663909912e-02 -23 -24 1656
            -1.0267408192157745e-01 -25 -26 2782 1.1245535686612129e-02</internalNodes>
          <leafValues>
            1. 1. 7.6778191328048706e-01 -7.8795844316482544e-01
            7.9374289512634277e-01 1.0216554999351501e-01
            -6.5217953920364380e-01 8.7924128770828247e-01
            -4.9090272188186646e-01 -7.8523492813110352e-01 1.
            -3.9818726480007172e-02 -4.5742070674896240e-01
            8.1084892153739929e-02 -6.0282963514328003e-01 -1.
            8.9068275690078735e-01 -9.3015450239181519e-01 1.
            4.4133773446083069e-01 7.2242133319377899e-02
            -1.1592473834753036e-01 6.7640608549118042e-01
            3.7983530759811401e-01 -1.7228502035140991e-01
            4.6859565377235413e-01 -5.5588579177856445e-01</leafValues></_>
        <_>
          <internalNodes>
            1 2 3009 -4.1111867874860764e-02 3 4 3602
            -3.9807979017496109e-02 5 6 2826 3.4355625510215759e-02 7 8
            2227 -4.3391194194555283e-03 9 10 4103
            -9.5515735447406769e-03 11 12 2572 -3.3158492296934128e-02
            13 14 1224 9.7469538450241089e-03 15 16 1595
            6.3964992761611938e-02 17 18 1668 -4.8691041767597198e-02 19
            20 3804 1.8863730132579803e-02 21 22 2284
            -1.1732937768101692e-02 23 24 1466 2.2354634106159210e-01 25
            26 2529 -1.8661159276962280e-01 27 28 2774
            2.0267318934202194e-02 29 30 672 7.4048293754458427e-03 0 -1
            1081 -3.6348264664411545e-02 -2 -3 3198
            2.6487391442060471e-02 -4 -5 1371 -3.6657027900218964e-02 -6
            -7 4085 6.8179995287209749e-04 -8 -9 2832
            2.2331397980451584e-02 -10 -11 2801 -5.6599471718072891e-02
            -12 -13 3500 -1.4520967379212379e-02 -14 -15 2783
            -1.1453108862042427e-02 -16 -17 3174 -1.2534718960523605e-02
            -18 -19 2814 -1.7335448414087296e-02 -20 -21 2087
            -2.1855328232049942e-03 -22 -23 3857 9.3829408288002014e-03
            -24 -25 3835 -8.0251693725585938e-03 -26 -27 2651
            1.0500230789184570e+00 -28 -29 2916 -1.5708667039871216e-01
            -30 -31 2081 3.1516265124082565e-02</internalNodes>
          <leafValues>
            7.2095149755477905e-01 -8.9554482698440552e-01
            8.1051152944564819e-01 -1. 3.9345639944076538e-01
            -5.7652479410171509e-01 -2.5381007790565491e-01
            6.2056487798690796e-01 2.5985008478164673e-01
            -3.0182185769081116e-01 7.8641420602798462e-01
            -6.2087261676788330e-01 6.0846269130706787e-01
            -6.2240934371948242e-01 1.4105981588363647e-01
            5.6553477048873901e-01 -4.4173654913902283e-01
            6.2045302242040634e-02 -1.8061362206935883e-01
            6.9060760736465454e-01 -8.2293671369552612e-01
            5.1184600591659546e-01 -2.9659473896026611e-01
            -6.4185965061187744e-01 -1.5043701231479645e-01
            3.9906337857246399e-01 -2.7211794257164001e-01
            9.3461281061172485e-01 4.1021999716758728e-01
            -1.5127535164356232e-01 -8.3328592777252197e-01
            -9.3347668647766113e-02</leafValues></_>
        <_>
          <internalNodes>
            1 2 1846 -1.3043556362390518e-02 3 4 2170
            -5.9705350548028946e-02 5 6 672 -8.6206775158643723e-03 7 8
            3563 -6.1610909178853035e-03 9 10 1874
            1.0764636993408203e+00 11 12 422 1.7269831895828247e-01 13
            14 2524 -3.2025448977947235e-02 0 15 210
            -1.8046389520168304e-01 16 17 658 -3.2074615359306335e-02 18
            19 1731 -5.6886941194534302e-02 -1 20 92
            -6.1293751001358032e-02 21 22 1233 3.9297953248023987e-01 -2
            23 1870 -1.5112000517547131e-02 24 25 170
            -1.7547585070133209e-02 26 27 2447 9.1534793376922607e-02 -3
            -4 1528 1.0969702154397964e-01 -5 -6 920
            1.4817490577697754e+00 -7 -8 1251 5.9172671288251877e-02 -9
            -10 890 1.3122576288878918e-02 -11 -12 656
            8.7710209190845490e-02 -13 -14 419 -2.1888643503189087e-02
            -15 -16 2701 -2.8183504939079285e-02 -17 -18 2
            2.2854408249258995e-02 -19 -20 3269 1.0129554197192192e-02
            -21 -22 3037 9.1619089245796204e-02 -23 -24 2735
            -4.1457489132881165e-02 -25 -26 736 -3.5037468187510967e-03
            -27 -28 3898 1.2545760720968246e-02</internalNodes>
          <leafValues>
            1. -1. -1. -8.0460941791534424e-01 6.7461979389190674e-01
            -9.7162610292434692e-01 1. 6.7586350440979004e-01
            -2.6848298311233521e-01 -1.0125990957021713e-01
            -6.1436253786087036e-01 -6.2763655185699463e-01
            1.6703715920448303e-01 -1. 1. -9.4222500920295715e-02
            -5.2294886112213135e-01 1. -1. 8.8514739274978638e-01 -1.
            2.5054189562797546e-01 -4.3072527647018433e-01
            6.8686139583587646e-01 2.7680185437202454e-01
            -2.8834077715873718e-01 1.8642503768205643e-02
            2.8886729478836060e-01 -2.8446674346923828e-01</leafValues></_>
        <_>
          <internalNodes>
            1 2 2467 -7.8398659825325012e-02 3 4 12
            -2.8502246364951134e-02 5 6 4032 -6.2480084598064423e-03 7 8
            96 4.6993082761764526e-01 9 10 1950 6.5639115869998932e-02
            11 12 3954 -5.7429492473602295e-02 13 14 50
            8.8943261653184891e-03 15 16 3410 -5.0648726522922516e-02 17
            0 3971 2.8567812405526638e-03 18 19 2269
            -1.6708850860595703e-02 20 21 1568 -4.0986053645610809e-03
            22 23 976 -2.8882700949907303e-02 24 25 1854
            -9.7846359014511108e-02 26 27 1913 8.1420317292213440e-02 28
            29 432 4.7235175967216492e-02 -1 -2 3488
            -6.5511655993759632e-03 -3 -4 1350 9.6704387664794922e-01 -5
            -6 1507 1.3831820106133819e-03 -7 -8 2799
            2.7610603719949722e-03 -9 -10 3612 2.2320473194122314e-01
            -11 -12 2295 -3.0867371708154678e-02 -13 -14 1694
            -2.9158465564250946e-02 -15 -16 14 -2.7343716472387314e-02
            -17 -18 1949 -1.3270992040634155e-01 -19 -20 2326
            -6.0039311647415161e-03 -21 -22 1503 -3.5967718809843063e-02
            -23 -24 3256 1.1925423145294189e-01 -25 -26 46
            -1.0734681971371174e-02 -27 -28 142 -2.4990037083625793e-02
            -29 -30 1540 -2.5534790754318237e-01</internalNodes>
          <leafValues>
            -1. -9.3339264392852783e-01 7.2012501955032349e-01
            -9.1982614994049072e-01 1. -1. 1. -8.2339286804199219e-01
            4.4575330615043640e-01 4.6026232838630676e-01
            -2.3517805337905884e-01 8.7357574701309204e-01
            -8.5202169418334961e-01 1. -9.6133452653884888e-01 1.
            -9.5035487413406372e-01 -9.3837088346481323e-01
            5.9230816364288330e-01 -6.2547361850738525e-01
            6.0845649242401123e-01 5.7753521203994751e-01
            -5.8425569534301758e-01 -1.6254815459251404e-01
            1.5036636590957642e-01 -2.5918954610824585e-01
            2.7080956101417542e-01 1.5818542242050171e-01
            -3.0363342165946960e-01 2.8396809101104736e-01
            -5.6799083948135376e-01</leafValues></_>
        <_>
          <internalNodes>
            1 2 1312 -5.1602516323328018e-02 3 4 1522
            2.8363293409347534e-01 5 6 3840 6.0847848653793335e-03 7 8
            2954 1.0431468486785889e-01 9 0 1746 1.1520948261022568e-02
            10 11 496 -2.4512091651558876e-02 12 13 2147
            -1.5361016988754272e-01 14 15 124 4.3882980942726135e-02 16
            17 3038 -5.4502720013260841e-04 -1 -2 3836
            -4.1662789881229401e-03 18 19 1285 -5.9436477720737457e-02
            20 21 3778 -8.3382084965705872e-02 22 23 2446
            5.8878295123577118e-02 24 25 718 -6.1519993469119072e-03 -3
            -4 3214 1.9987219572067261e-01 -5 -6 887
            4.7467377036809921e-02 -7 -8 1017 -4.7000715136528015e-01 -9
            -10 3709 7.8960333485156298e-04 -11 -12 3646
            -4.5171126723289490e-02 -13 -14 861 2.7233270928263664e-02
            -15 -16 3156 5.9031210839748383e-02 -17 -18 1007
            9.4714421033859253e-01 -19 -20 3112 4.0941867977380753e-02
            -21 -22 3612 -1.7545950412750244e-01 -23 -24 4052
            -7.7696934342384338e-02 -25 -26 3016 1.1199003458023071e-01</internalNodes>
          <leafValues>
            -1. -6.7132127285003662e-01 1. -3.4426262974739075e-01
            5.2903199195861816e-01 -7.2959148883819580e-01
            4.0009179711341858e-01 -1. 8.7939977645874023e-01 -1.
            6.6093343496322632e-01 -8.6259382963180542e-01
            9.5120495557785034e-01 -5.6470555067062378e-01
            2.6334312558174133e-01 -4.6422514319419861e-01
            3.8268733024597168e-01 1.3317829370498657e-01
            -4.9314400553703308e-01 7.1351635456085205e-01
            -8.4901386499404907e-01 6.4715397357940674e-01
            -9.6177184581756592e-01 2.3308330774307251e-01
            -7.4653959274291992e-01 -2.7853912115097046e-01
            8.3028137683868408e-01</leafValues></_>
        <_>
          <internalNodes>
            1 2 2767 -1.1853578500449657e-02 3 4 1628
            2.6247256994247437e-01 5 6 2490 -2.9027644544839859e-02 7 8
            1121 1.0267327725887299e-01 9 10 471 4.9653744697570801e-01
            11 12 1043 1.9833523780107498e-02 13 14 2816
            -4.7052413225173950e-02 15 16 2029 1.3118484616279602e-01 17
            18 1124 3.7931869737803936e-03 19 20 2038
            5.7354301214218140e-02 0 -1 631 -1.4288285374641418e-01 21
            22 529 -2.3784624412655830e-02 23 24 617
            1.4343238435685635e-02 25 26 2442 3.9423005655407906e-03 27
            28 2939 -3.8820207118988037e-02 -2 -3 2374
            -5.2846327424049377e-02 -4 -5 342 -4.2606309056282043e-02 -6
            -7 1658 7.2625791653990746e-03 -8 -9 4017
            -1.8965376075357199e-03 -10 -11 4055 -5.6138370186090469e-02
            -12 -13 286 1.6938727349042892e-02 -14 -15 2422
            -4.3730363249778748e-02 -16 -17 295 -4.7166441800072789e-04
            -18 -19 1443 1.5666553750634193e-02 -20 -21 3950
            4.4433968141674995e-03 -22 -23 401 -7.6105497777462006e-02
            -24 -25 3969 -1.1119918897747993e-02 -26 -27 2908
            -1.1938551068305969e-01 -28 -29 2885 4.8369769006967545e-02</internalNodes>
          <leafValues>
            1. -1. -8.3896890282630920e-02 -6.3975900411605835e-01 -1.
            9.6869361400604248e-01 7.4550110101699829e-01 -1.
            5.9949117898941040e-01 -7.9912215471267700e-01 -1.
            7.4211686849594116e-01 -1. 1. -5.1262199878692627e-01
            6.1416620016098022e-01 9.0302929282188416e-02
            -4.9669101834297180e-01 -5.9828388690948486e-01
            8.9296534657478333e-02 2.9165402054786682e-01
            -6.0117322206497192e-01 -8.6624777317047119e-01
            4.4303774833679199e-01 5.5241805315017700e-01
            -3.3326670527458191e-02 4.6995857357978821e-01
            5.1802419126033783e-02 -2.8538751602172852e-01
            6.0829225927591324e-02</leafValues></_></weakClassifiers></_>
    <!-- stage 8 -->
    <_>
      <maxWeakCount>10</maxWeakCount>
      <stageThreshold>-1.0806074142456055e+00</stageThreshold>
      <weakClassifiers>
        <_>
          <internalNodes>
            1 2 2454 3.3988532423973083e-01 3 4 920
            1.4342573881149292e+00 5 6 1151 3.4456628561019897e-01 7 8
            3039 1.2781354784965515e-01 9 10 212 3.2340355217456818e-02
            11 12 1819 -1.9911220297217369e-02 13 14 4079
            -2.8793700039386749e-02 15 16 2515 1.0910291671752930e+00 17
            18 3180 1.0872269049286842e-02 19 20 3953
            -2.8611883521080017e-02 21 0 104 3.0498284101486206e-01 22
            23 3217 -1.2388050556182861e-01 24 25 553
            -6.8179932422935963e-03 26 27 3919 2.5093975663185120e-01 28
            29 1500 1.2060917913913727e-02 -1 -2 2098
            1.0489019751548767e-01 -3 -4 1497 5.8398023247718811e-03 -5
            -6 1307 -9.3945804983377457e-03 -7 -8 3557
            -2.2093432024121284e-02 -9 -10 2311 6.9184601306915283e-01
            -11 -12 3996 -2.9981952160596848e-02 -13 -14 3441
            -7.1095198392868042e-02 -15 -16 403 -1.2790435925126076e-02
            -17 -18 2588 -1.7878186702728271e-01 -19 -20 3059
            -6.2859848141670227e-02 -21 -22 321 2.7801606804132462e-02
            -23 -24 667 -3.7843734025955200e-02 -25 -26 26
            2.2850913926959038e-02 -27 -28 4074 -1.4938391745090485e-02
            -29 -30 3862 -2.4810459464788437e-02</internalNodes>
          <leafValues>
            1. -2.7994662523269653e-01 2.2191780805587769e-01
            8.2899630069732666e-01 -6.0000002384185791e-01
            -3.4246575832366943e-01 4.8014441132545471e-01
            3.0000001192092896e-01 -4.0484428405761719e-01 -1.
            6.6666668653488159e-01 -5.3846156597137451e-01
            8.4466022253036499e-01 1. -8.2352942228317261e-01 -1. 1.
            4.0350878238677979e-01 -4.7826087474822998e-01
            7.9310345649719238e-01 -4.3065693974494934e-01
            6.3547992706298828e-01 -5.6000000238418579e-01
            1.6363635659217834e-01 -7.5757575035095215e-01 1. -1.
            -1.0769230872392654e-01 8.5816025733947754e-01
            -4.3181818723678589e-01 5.1754385232925415e-01</leafValues></_>
        <_>
          <internalNodes>
            1 2 1524 9.1433507204055786e-01 3 4 2099
            9.7826790809631348e-01 5 6 4101 -8.8972654193639755e-03 7 8
            2150 -7.5846269726753235e-02 9 10 1926
            -2.3816164582967758e-02 11 12 3580 -7.5963558629155159e-03
            13 14 3953 2.2179106250405312e-02 15 16 3721
            1.1787466704845428e-01 17 18 902 1.4259890317916870e+00 19
